2102 100
, 0.154281 0.0415781 0.0725113 0.0617474 -0.159696 -0.00647559 -0.0441244 -0.0476217 -0.0691183 0.0732507 -0.0152808 -0.0567511 -0.204059 -0.0948797 0.0542506 -0.0261014 0.00910002 -0.0319268 0.107739 -0.0269542 0.0236026 -0.00314302 0.0339752 -0.0246465 0.00286349 -0.184614 -0.039335 0.0492979 -0.109534 0.082588 -0.091566 -0.0658806 0.0454776 -0.0517085 -0.0100038 0.00513261 -0.0976722 0.0225399 -0.0337473 -0.0533388 -0.0141893 -0.0711205 -0.0279408 -0.00822316 -0.0431661 -0.222344 0.0344368 -0.0459262 -0.040203 -0.0519574 0.0377842 0.11671 -0.0612538 -0.0452555 -0.106508 -0.0741419 -0.0408271 -0.00945073 0.0254731 0.0848492 -0.00755394 0.117265 0.0432468 -0.0152822 -0.0578072 -0.00395788 -0.0253143 -0.0488623 0.0300071 0.00267764 -0.0430027 0.0750407 -0.0412695 0.041977 0.0178703 -0.0144869 0.0161367 0.0100411 0.0120476 -0.0181693 -0.0310309 0.00208723 -0.0095345 0.0223586 0.00400311 0.0382905 0.0121005 0.0128066 -0.0127845 0.0036747 0.0029557 -0.00204794 0.0135136 -0.00599986 0.0192878 -0.0174256 0.00407066 -0.0014879 -0.0199122 0.0174877
δέ -0.091774 -0.112647 -0.139067 0.0395172 -0.00442044 -0.143735 -0.076939 -0.0884696 -0.0147154 0.112755 -0.000295248 -0.0583315 -0.230838 -0.0148391 0.0621623 -0.0182971 0.0735332 -0.0827319 0.197677 0.0587355 0.199235 -0.126836 0.0222516 -0.108578 0.123662 -0.001124 -0.131905 -0.0084651 -0.128518 -0.142362 -0.0811866 0.0253675 -0.110398 0.0808731 -0.013028 0.0362027 -0.0500484 0.00676815 0.134738 -0.0821684 0.196672 0.00970511 -0.0387346 0.0813882 0.0233405 0.0378272 0.0333354 -0.00228941 -0.00983881 0.0394536 -0.0034625 0.054128 -0.0993019 -0.00455153 0.0705969 0.0423645 0.00740568 0.00122572 -0.0302897 -0.0380074 0.00469722 -0.00853122 0.00224366 -0.0153969 -0.00186911 -0.0302553 0.00217966 0.0433975 -0.0172917 0.0274671 0.000349725 0.00210969 -0.0112751 -0.00744635 -0.00365214 -0.00510065 -0.0337556 -0.00906933 0.0561384 -0.00456058 0.00348526 -0.0413917 -0.0144737 0.030801 -0.0483196 0.0208136 -0.0235764 0.0114814 0.0118631 -0.0110252 0.031583 -0.0155131 0.0192257 0.0312287 -0.0400909 0.00567755 -0.0235608 -0.0282859 -0.0160773 0.00417989
· -0.0354454 -0.0518204 0.0936537 -0.0287965 0.0793381 0.0104856 -0.170158 0.0419419 0.164291 0.204356 0.144775 -0.128758 -0.228883 -0.0342589 0.108673 -0.00109161 0.0383321 -0.179803 0.0895562 -0.152709 0.00760971 -0.033675 -0.120176 0.0184986 0.188103 -0.0846587 -0.0580999 -0.0259081 -0.0472261 0.0463332 -0.0238795 0.0279046 -0.00555614 0.0570338 -0.079713 -0.117851 -0.0139253 0.0829411 -0.0181799 -0.047379 0.0338369 -0.0417968 -0.0118495 0.00355285 -0.0240433 -0.0714602 0.0046035 -0.0326687 -0.0668768 -0.00321249 -0.0725239 0.11359 -0.00540817 0.000509752 -0.0636994 -0.0359591 -0.035476 0.0135168 -0.0128235 0.0136657 0.0188008 0.0194576 0.0170934 -0.0540623 -0.0114096 -0.0235081 -0.0405804 0.014257 0.0366582 0.00723047 -0.0265626 0.0103211 -0.0354961 -0.0041948 -0.00526958 -0.00587762 -0.0388348 0.0119661 0.0544972 -0.0238724 -0.00708081 -0.018328 0.00485721 0.0205806 -0.00851749 0.0399309 0.00124123 -0.00854747 0.0174915 0.0159674 -0.000197212 -0.0138236 0.00874758 0.0158656 0.00343229 -0.00426402 -0.0255047 0.019789 -0.0148837 0.0134433
. 0.0232586 0.154664 0.117241 0.0122753 0.109534 0.0430904 -0.133862 0.0522774 0.184461 0.0338036 0.185988 -0.126047 -0.307157 -0.0899653 0.026633 -0.0182975 0.0807711 -0.149921 0.0949072 -0.136946 0.00809305 -0.0320681 -0.123897 0.0206512 0.162829 -0.0955496 -0.0629693 -0.0237993 -0.0442665 0.0340334 0.0223639 0.0298402 -0.0509554 0.0235263 -0.0873401 -0.0920944 -0.0344059 0.0365037 0.0621192 0.0216904 0.0057408 0.00607494 0.0360772 -0.00448564 0.0355224 -0.0898842 -0.0197302 -0.0263623 -0.0882172 0.0333797 -0.0324553 0.0745085 -0.0124046 -0.0203171 -0.110636 -0.00211571 0.00908132 0.0329716 -0.0132088 -0.00040598 0.0302339 0.0175565 -0.0103937 -0.0361831 -0.0527464 -0.0692573 -0.0755738 -0.0225245 0.00613225 0.00672984 -0.00430921 -0.0104563 -0.0212873 -0.00855192 -0.00521016 -0.0133568 0.00162788 0.0269573 0.00856621 -0.00557753 0.026556 -0.0129535 0.00570676 0.0248901 -0.00464338 0.0436286 0.0206247 -0.0132035 0.0115627 0.0184123 0.0172319 -0.0229031 0.00371698 0.00859856 0.00244519 -0.0137564 -0.0204245 0.017147 -0.004842 0.0247415
ὁ -0.120823 -0.152965 -0.00528256 0.140644 -0.10424 -0.203716 -0.00384906 -0.164976 0.0838629 0.0219993 -0.0469429 -0.0175871 -0.282732 0.0817515 -0.0685732 -0.0735591 0.0236861 -0.151764 -0.0037 0.0165468 -0.0189878 -0.0194365 0.0423462 -0.11784 0.223841 0.0194683 -0.143424 -0.0737359 -0.0302084 0.0188768 0.0125019 -0.0139407 0.0263104 0.0814957 0.00510241 -0.00135793 -0.04546 0.099988 -0.122732 0.0012955 0.0209404 0.0455214 -0.071523 -0.0226599 -0.00501146 -0.108667 0.121965 -0.0293602 0.0652951 -0.0256687 -0.0549618 -0.0949611 -0.00957295 0.0725419 0.0334009 -0.0212885 0.0119806 -0.0420982 -0.00615108 -0.0642111 0.0227415 -0.00310208 -0.0463159 -0.0551056 0.0293982 0.013045 -0.00830828 -0.0294528 0.00434949 0.0121757 -0.00837678 -0.0135752 -0.0147047 0.0132449 -0.0358643 0.0245887 -0.0233321 -0.0183153 0.0182766 -0.00731293 -0.0294126 0.017563 0.0190229 -0.00780853 0.0382488 -0.00516201 0.0234634 0.0259749 0.0102895 -0.0085858 -0.00215295 -0.00640326 -0.00184809 0.00963705 -0.0265054 0.00334651 -0.014946 0.0209193 0.0106463 0.00876089
καί 0.158342 0.0321157 0.0739948 -0.0938877 -0.190624 0.154066 0.00971632 0.0477997 0.0544678 0.0272407 0.115285 -0.0969635 -0.135998 -0.273787 0.0659395 0.0496188 -0.14067 -0.18492 -0.0823397 -0.000281168 -0.00284323 -0.0258579 -0.021126 0.00388565 0.0524984 -0.0782777 -0.028628 -0.00855586 -0.124943 0.019665 -0.0143312 -0.0919143 -0.0772135 0.0692607 -0.105382 -0.00119085 0.110813 0.14872 0.0701517 -0.062678 0.00775849 0.0808487 -0.0142975 -0.00856422 0.000597138 -0.137512 0.061189 0.0458277 -0.00472907 -0.00452571 0.0465192 0.00262236 0.0864075 -0.0723545 -0.0160276 -0.0030294 -0.0705263 0.0176689 0.0295041 -0.0376265 -0.00528706 -0.0401319 0.00505047 0.0217939 -0.00284127 0.0325319 -0.0260657 -0.0103022 0.0111776 -0.0215768 0.0527608 -0.00635969 0.00749972 0.0162357 -0.00558606 -0.0299066 -0.0484892 0.0118915 0.00354124 -0.00683025 0.00563502 -0.0214918 0.0302277 0.0298056 -0.00961109 0.0147082 0.0187053 -0.00967465 -0.0146047 0.0135167 0.007992 0.0128502 0.0380847 0.0128541 -0.00265499 -0.0124322 -0.013156 0.00631852 -0.017849 0.0335035
τε -0.0139209 0.0466736 0.196028 -0.094256 -0.0469699 0.219528 0.0531266 0.0789143 -0.152091 0.265211 -0.068159 0.115255 -0.183723 -0.227599 0.0472512 0.0781673 -0.0632335 -0.0991396 -0.0389223 0.108124 0.0538828 -0.0735005 -0.122304 -0.110291 0.039 -0.0397324 0.026826 0.0542865 -0.0982137 -0.000147755 0.00697458 -0.0544874 0.0927646 -0.0523959 -0.0934159 -0.0500906 0.0824974 0.0210636 0.0958814 -0.0242315 -0.0513214 0.0390298 0.0805563 0.0569477 0.0637083 -0.0123579 0.0406203 0.0050972 0.08145 0.0278801 -0.019456 0.0162935 -0.009184 -0.0322902 -0.0514453 0.0140769 -0.0307003 -0.0564107 -0.00152857 7.81249e-05 -0.0258891 -0.00602802 0.0276089 -0.0565764 -0.05376 0.00274469 -0.0110288 0.0262779 -0.00608136 -0.00949214 0.0350512 -0.0176775 -0.0246804 -0.0585728 -0.0127013 -0.0455323 -0.0311628 0.0137301 0.0280022 -0.0225215 -0.00845412 -0.0152489 0.0279893 0.0232068 -0.0361068 0.00794183 0.0125302 -0.0319403 0.0198307 0.0197088 0.00933341 -0.0221821 -0.0112884 0.0194449 0.0132495 -0.0102541 -0.0295153 -0.0093219 0.00220711 0.0116171
ἐγώ 0.491665 0.0563133 0.0618527 0.018553 -0.140959 -0.246986 -0.0717988 -0.116963 0.071068 -0.145124 -0.0391429 -0.0965454 -0.0881792 -0.194719 -0.0929343 -0.0521391 -0.0361199 -0.0843192 0.129087 0.0186731 0.0633682 -0.0216782 0.007264 -0.0303558 -0.0990307 -0.0801587 0.00843848 -0.0403439 0.0735845 0.0524028 -0.0546046 -0.113517 0.0822115 0.0471777 -0.0180084 -0.0992528 0.108063 -0.0589709 0.00909619 0.00609113 -0.0448321 -0.0508449 0.00503471 -0.0475359 0.0622837 0.0155593 -0.0306316 -0.0747415 -0.0221899 -0.0672091 -0.0347511 -0.00477914 0.00315471 0.017785 0.00979217 -0.00647464 -0.045168 0.0458286 0.0075487 0.00821222 0.0539277 0.0183952 0.0101422 0.0383039 -0.0451918 -0.012724 0.0131264 -0.0127519 -0.0357196 -0.0198966 0.0162224 -0.00923593 -0.0211013 0.0173569 0.0155845 -0.00420118 -0.0258779 0.0311001 0.015389 -0.0192172 -0.0124107 0.00733385 -0.00261013 0.00665446 -0.0016801 0.0358835 0.00342748 0.0364598 0.00447593 0.012508 -0.0174796 -0.0194074 -0.00193546 -0.000313514 -0.0025154 -0.00950535 0.00261678 -0.00632501 0.0138847 -0.0317183
οὐ 0.34062 0.104973 -0.0730196 0.0199852 0.0231941 -0.0479201 -0.00188278 -0.0669405 -0.181519 0.106961 -0.233152 0.0257278 -0.211811 0.0451636 -0.088252 0.0599276 0.227019 -0.0672999 0.0332318 -0.100737 0.0649454 0.106889 -0.0852192 -0.100555 0.0951842 -0.00548235 0.111559 0.113822 -0.0485196 -0.0528572 -0.0332862 0.00791926 -0.112268 -0.0346772 0.0631935 -0.0140685 0.020315 -0.034063 -0.0680146 -0.0276253 0.00673828 0.131377 -0.131508 0.0435572 -0.0382813 0.0292925 -0.00938965 0.0721893 0.0657964 0.0232122 -0.0259597 0.0415763 -2.12761e-06 0.0663522 -0.0176542 0.0251758 -0.0128924 0.0119504 0.0165685 0.0258966 -0.00654434 0.00167409 0.031139 -0.033235 -0.000483982 0.0480937 5.6643e-06 -0.0315039 0.0293946 -0.0234898 -0.00995544 0.0164265 0.0219988 -0.0263864 -0.0266049 0.0207744 0.00896299 -0.0267496 0.00418676 0.00375729 0.0080804 -0.00883492 -0.0136334 -0.0140115 0.00452337 -0.00154366 0.0195028 0.00515359 -0.0167596 0.0262537 -0.00114035 -0.0149878 0.0139435 0.0154799 0.048646 -0.00609376 -0.0163455 0.0257519 0.0129844 -0.00257389
εἰμί 0.378497 0.161238 0.148724 0.0381442 -0.110697 0.134121 0.0185328 -0.0733952 -0.296418 0.159341 -0.182851 0.0990736 -0.108923 -0.0208597 -0.00507796 0.0901694 0.180371 3.5394e-05 -0.0404722 0.0166433 -0.0686265 -0.0632927 -0.0900464 0.0971011 -0.0476996 0.0542729 -0.0282614 -0.0119374 0.0106181 0.01495 0.0633438 -0.08175 0.0742643 0.0944524 -0.0322152 0.137151 -0.116879 -0.0449131 -0.0455848 -0.00344522 -0.0124938 -0.0276993 0.00970639 -0.050153 0.00676863 -0.0446119 -0.0931779 0.00280621 0.00472741 -0.0416298 0.00991897 0.0421857 -0.00538394 0.0125963 -0.012127 0.025445 0.0113445 -0.020606 -0.0587988 -0.0301551 -0.0316882 -0.0125222 -0.0265212 -0.00672287 0.0329532 -0.0385944 -0.00164331 -0.00824691 0.0067233 0.008193 -0.00574529 0.0255625 -0.0231625 -0.010158 -0.0040875 0.00270066 -0.00674059 0.0241761 -0.0326197 0.0343298 -0.0150607 0.0413654 0.0164634 -0.0116608 0.0360399 0.0097275 0.0426366 0.00425927 -0.0284541 0.00309693 0.0134999 0.00929419 -0.0268348 -0.0201454 -0.00259135 -0.0168585 0.0159486 0.00178034 0.00395926 -0.0286336
ἐν 0.0390218 0.181853 -0.0505386 0.0017126 -0.329008 0.199325 -0.185347 0.0232331 0.200498 0.241993 0.0483908 -0.0654382 -0.157034 0.154959 -0.10553 -0.0604285 -0.0202656 -0.0657682 0.155865 0.0711858 -0.231454 -0.0339286 -0.055781 0.101521 -0.0316401 0.104253 -0.0787054 -0.00191534 0.0420104 -0.0121866 0.00603253 0.0133435 -0.0660641 -0.1337 0.102273 0.0537006 -0.0133655 -0.0316852 -0.0733061 -0.0198796 0.0294828 -0.000755094 0.0203287 0.0765895 -0.0910987 0.0355841 -0.0131564 0.00123419 -0.0134688 0.00639776 -0.0262152 0.0475635 -0.0173423 -0.0787319 0.0196822 -0.0173219 -0.0170505 0.0335569 0.018612 0.0346164 0.0332376 -0.0171769 -0.0251763 0.0116232 -0.0249075 -0.0240986 0.0272966 -0.021469 0.036971 -0.00392464 0.00406454 0.00260354 -0.0140374 -0.0138089 0.0149743 -0.0234105 0.000868991 0.0108557 -0.00860682 0.00394057 -0.00243985 0.0137216 -0.0242519 -0.00316278 -0.00131869 -0.0216908 0.0243804 -0.0160768 -0.00623623 -0.0200051 0.0164293 0.0272294 -0.000662372 0.024875 -0.0322525 -0.00941679 -0.000795729 0.00910251 -0.00175269 -0.0193102
ὅς 0.22464 0.00792118 0.33493 0.0452599 -0.0153484 0.0907875 -0.0766736 -0.0570275 -0.124612 0.0971553 0.0798951 -0.0882664 -0.24126 -0.032561 -0.0793126 0.10485 0.0853322 -0.215086 -0.112534 -0.075034 0.0898804 -0.101366 -0.0517022 0.0714909 0.139463 0.0712089 0.0330289 -0.0678426 -0.0829839 -0.0137754 -0.00301758 -0.103617 -0.129687 0.0342407 0.0108117 0.0179034 -0.0827361 0.0600571 0.0470252 0.0176826 0.0874443 0.0641301 -0.0689737 0.0291532 0.0832591 0.0417291 0.0286365 0.0326012 0.077726 -0.000951032 0.000370076 0.0227506 0.0201332 -0.0212171 0.00959682 -0.0300642 -0.0660341 0.0158562 -0.00853368 -0.0470348 -0.0032113 -0.0237867 -0.0307477 -0.00950912 -0.000839448 -0.0148479 -0.00849967 -0.0553707 -0.0321244 -0.00342533 -0.0083244 0.0199345 -0.0341269 0.003742 0.011495 -0.000441354 -0.0177136 0.0156009 0.0100922 -0.0147911 -0.0159413 0.0105437 -0.0107586 -0.0184856 -0.00572468 0.0238804 0.00535242 0.0246688 -0.0147118 -0.0272164 -0.0134436 -0.0213677 0.0237476 0.0315181 -0.0246445 -0.0126 -0.0134147 0.00960102 -0.00966148 -0.017637
ὡς 0.0560616 -0.122041 -0.0968707 -0.00572435 0.101775 -0.220993 0.0487846 0.0468607 0.0665255 0.140195 -0.0926555 -0.115291 -0.205719 -0.0951791 -0.0915084 -0.0148315 0.202114 -0.125593 -0.0470113 0.0604681 0.0514027 -0.0323127 -5.04605e-05 -0.0124788 -0.231072 0.142641 0.0092583 -0.0573752 -0.0830144 -0.0903526 0.0134389 -0.160479 -0.134551 -0.0231742 0.0593896 0.0548165 -0.0403236 -0.0194319 -0.0888553 0.0209178 -0.0281459 0.090082 0.0809479 0.0191264 0.103876 0.00687059 0.0115524 -0.00799393 0.0486816 -0.00299411 -0.0333416 0.0141495 -0.0171173 0.0285666 -0.00917943 0.0103155 -0.0459672 -0.0289778 0.00866244 -0.0082642 0.0446128 -0.00537313 -0.0314023 0.0130023 -0.00448358 0.024102 -0.00421289 -0.0173817 0.00713256 0.0060556 0.00268007 0.0180398 -0.0223817 0.0102282 0.000281746 0.042047 -0.00620914 0.00512297 0.0181494 0.00552708 -0.0035233 -0.00559032 -0.018795 0.0298648 -0.0038162 0.0257086 0.0336597 0.0202328 -0.0129736 -0.0233655 -0.027667 -0.0290586 0.0088415 0.0183028 -0.0253119 -0.0181163 0.0056288 -0.0207432 -0.000127355 -0.0179247
σύ 0.533238 0.0285585 0.0552898 -0.0802121 -0.0694219 -0.12552 -0.0832727 -0.199184 -0.00363281 -0.0816507 -0.121179 -0.13097 -0.0569184 -0.157272 -0.0222836 -0.0432729 0.0701636 -0.0430189 0.136853 -0.0143767 0.0321153 0.0186397 0.0246007 0.042975 -0.0364651 -0.0503629 -0.0014111 -0.00824182 0.101391 -0.0271441 -0.0249933 0.000684156 0.146407 0.064873 -0.159072 -0.0490165 -0.00441147 -0.0630175 -0.036523 -0.0319749 0.000322494 -0.0223704 0.0215291 0.0474176 -0.0337884 -0.0246981 -0.0249495 -0.015871 -0.000634484 -0.0753334 0.0063112 -0.0279988 0.00569588 -0.0298506 0.0327902 0.00301878 -0.0626573 -0.00275092 -0.00514023 -0.0713222 0.0445982 -0.023325 0.00904757 0.00929255 -0.0365087 -0.0233266 0.014281 -0.0582489 -0.00736422 -0.0113681 0.00690392 -0.0440783 0.000984401 -0.019231 -0.0272629 0.00608322 -0.0402088 0.0283811 0.0111865 -0.0239919 0.0234575 0.0138465 0.00585375 -0.0131394 -0.00414555 0.0240346 0.00352716 -0.00605113 0.027189 0.0212017 0.0124179 0.00404195 0.00789976 -0.0207428 0.0215062 0.000681295 -0.025333 -0.00473228 0.0277438 -0.00851021
μέν 0.11693 0.150513 -0.0602269 0.0961625 -0.149819 -0.0369867 0.0709107 -0.211802 0.0480918 -0.0457011 -0.164192 -0.0679179 -0.198344 -0.021683 0.0913591 -0.0269739 -0.0360194 0.00471392 0.0470234 -0.109586 0.091605 0.0470477 -0.0136222 0.106952 -0.0194927 -0.122234 0.027826 -0.0335079 -0.181302 0.109355 -0.0694652 0.00619408 -0.169023 -0.00227988 -0.041719 -0.0393061 0.0746375 0.082954 0.00455514 0.113371 -0.0099331 0.00968829 0.0521244 0.00390909 0.0284256 0.0303568 -0.0534184 -0.0860202 0.0708692 -0.0213581 0.00337581 0.0268823 0.0475016 -0.0782561 0.0242326 0.00871738 0.0181107 0.0171557 -0.0247157 -0.0421268 -0.0590565 -0.0331852 0.0110532 0.0123177 0.0049529 0.0441516 -0.0632155 0.056192 0.000632867 0.0418458 -0.019327 -0.0244273 -0.0188 -0.0380617 0.0083708 0.00107687 0.0201107 -0.030498 0.0109539 0.00102317 0.0210628 0.0116433 -0.0147191 0.0346961 0.0206837 0.0117654 0.0119888 -0.00737952 0.00819954 -0.00778005 0.0151345 -0.0365095 -0.0161116 0.0453273 -0.00998817 -0.0367247 0.0109484 -0.0164427 -0.0158536 0.0399721
ἄρα -0.164121 -0.217346 -0.0538049 -0.016366 -0.0204707 -0.2213 0.0273392 -0.0415107 -0.108513 0.0900597 -0.0651919 0.118597 -0.262378 -0.048564 0.000780491 -0.0849071 0.00178477 -0.0279546 0.0181632 0.101606 0.0463006 -0.0849419 -0.0122064 -0.0803092 0.0377947 -0.000752484 0.0284209 0.00392406 0.089729 -0.0194509 -0.0185071 -0.0642678 0.0245158 0.0828828 -0.193568 0.0213527 -0.0690067 -0.0878578 0.0176607 0.0147815 -0.0819946 0.0952189 -0.0548719 -0.0589908 -0.028908 0.0275437 0.0271902 -0.0755052 0.0303466 0.0178539 -0.0100421 -0.0477677 0.00444803 -0.0527548 -0.150948 -0.0591772 -0.0675474 -0.00185901 0.0365974 0.0303952 0.00377601 -0.0149712 -0.0052093 -0.00828632 -0.0654575 -0.0238004 0.0418619 0.00621441 0.0158831 -0.021175 0.0585383 0.00461025 -0.027464 -0.0114894 0.0370577 0.0236727 -0.00144083 -0.0176296 0.0398403 -0.0138002 -0.00598248 -0.00795815 -0.00717681 0.0391445 -0.0110876 0.00719786 0.0196145 -0.0337017 0.0127213 0.00566397 0.00965605 0.0138598 -0.0139372 0.034294 0.0103537 -0.0118228 0.0224819 0.0161718 -0.00820903 -0.023484
τις 0.446945 0.205877 0.00900634 -0.0260579 0.0752023 -0.0414634 -0.00856849 -0.0333821 -0.0294964 0.155563 -0.278555 -0.102965 -0.0858796 -0.0927285 -0.0181608 -0.00600521 0.0684614 0.078058 0.197835 0.0285109 -0.0645461 -0.0226825 -0.0458429 -0.122784 0.10883 -0.0643322 0.123084 -0.0891999 0.0964334 -0.0498768 0.033076 -0.0905114 0.0919805 -0.0749552 -0.0870362 0.140452 -0.0637228 0.115609 0.0509127 -0.0276033 0.0524001 -0.123925 0.022434 0.0081668 0.0282312 -0.00797066 0.0643905 0.00498614 0.0138054 0.0054003 -0.03685 -0.000651494 0.00114539 -0.0080835 -0.00366521 0.0040773 0.00797318 -0.0271242 0.0267963 0.0119074 0.00640865 -0.0258481 -0.0103697 0.00590722 -0.0250892 0.0312175 0.023469 -0.0207872 -0.00782987 -0.00901875 -0.00227695 -0.00487377 -0.00812623 -0.0269008 -0.0111979 -0.0154651 0.0152236 0.0259309 0.0102928 -0.0270489 -0.0105074 -0.00220762 -0.0105199 0.0165034 0.00955244 0.0353127 0.0256026 -0.00610554 -0.014901 -0.0140509 0.0228821 -0.0235284 0.0191431 0.00984633 -0.0177136 0.00446788 0.0295424 -0.0413732 0.0224617 -0.0110879
ἄν 0.326524 0.261306 0.0417734 0.0926404 0.0205945 -0.0756796 -0.0222967 -0.0619146 -0.0463156 -0.136994 -0.109608 -0.195483 -0.0716271 -0.218265 0.00905775 0.0770618 -0.0146963 0.08216 0.0594037 0.0769404 -0.0449797 -0.102689 0.041725 -0.11848 -0.00839474 -0.0878848 -0.0834501 -0.0543498 0.00616048 -0.00829977 -0.0611145 -0.00227677 0.00530359 0.00948131 -0.0344718 -0.0823291 0.0797811 -0.0238045 0.0377712 -0.0522456 -0.085741 0.0446751 -0.0453251 0.0203067 -0.0552974 0.00242592 -0.048325 -0.104501 -0.0267456 -0.0130644 -0.107915 -0.058528 0.0179738 0.0302611 -0.0273217 -0.0137788 -0.0138936 -0.0320778 0.031374 0.0137459 0.0103516 0.00255084 0.0174702 -0.0216259 0.0180934 0.00244191 -0.0150418 0.00332232 0.0298183 0.0750165 0.0490912 0.00520724 0.0295459 -0.00999645 0.0212587 -0.0132797 0.00822799 0.0614182 0.0509495 0.0346898 -0.0182912 -0.00837795 0.0217108 0.0242164 0.00419557 0.0117812 0.0508391 0.00839099 0.019755 0.0143931 0.043639 0.0293906 -0.0110984 0.00634887 0.00288303 -0.0171982 -0.0122872 0.0121033 -0.00795798 0.0159128
ἀλλά 0.258771 0.244418 -0.140754 0.101748 0.0304892 -0.245518 -0.0547185 -0.0668497 0.0126717 0.00848857 -0.140986 -0.119127 -0.268792 0.00885645 0.0344344 0.0399484 0.0025153 -0.149789 -0.0629777 0.109552 0.0660622 0.044085 0.0363794 0.0241398 0.108531 0.0338943 -0.163845 -0.00171098 -0.118256 -0.0601771 -0.0376932 -0.0121675 0.0435555 0.0773139 -0.0418868 0.0495013 0.0658866 -0.0319553 0.0890661 -0.00839521 0.140887 -0.0518709 -0.0879233 0.0943408 0.0567001 0.0740127 -0.0183073 -0.000619323 0.0403854 -0.032066 -0.0416824 0.0291147 -0.0470535 0.0150285 0.0165525 -0.0274382 0.0025995 0.00566304 -0.0603185 -0.0203377 0.00087986 -0.0308996 0.00190457 -0.0135809 0.0162828 -0.0146049 -0.0368716 -0.000738266 0.019726 0.00338152 -0.0281863 0.00044999 -0.0115032 0.0172674 0.0423103 -0.0204347 -0.000911721 0.0322623 -0.000693199 -0.00600659 -0.00452742 0.000690921 0.0123418 0.0258419 -0.0267974 -0.00306767 0.0076577 0.0265147 0.00897331 -0.0228628 0.0332697 -0.0322661 -0.0121919 0.00479497 -0.0275542 -0.00705635 -0.00842412 0.0213008 -0.0122929 -0.0261012
γάρ 0.422929 0.221191 0.075889 0.00777508 0.0506503 0.0103273 0.0182283 -0.0355325 -0.0950588 -0.0671309 -0.16923 0.0226717 -0.21854 0.0136976 -0.019871 0.0500384 0.00464322 -0.0368714 -0.00141139 0.00191606 0.162126 -0.0793291 0.0319263 0.0067268 0.155905 0.0421806 -0.0862639 -0.1387 -0.182362 0.00507396 -0.0521907 -0.0375877 -0.0299913 0.1035 -0.0132142 0.132219 -0.0712432 -0.0536663 -0.0190146 -0.101079 0.0547232 -0.00822524 -0.0268848 0.0281485 -0.0284564 -0.0663223 -0.0406593 0.0160232 0.00830198 -0.0210265 0.0121697 0.0382141 0.0107365 -0.0168866 -0.0238587 0.0112568 -0.0576982 -0.000638458 -0.0360649 -0.0325402 -0.029446 0.00197335 -0.03814 -0.0315449 0.051327 -0.00693725 -0.0383861 -0.0263731 -0.00908865 0.00862301 -0.0613076 0.00142922 -0.00558409 0.037517 -0.004854 -0.0315087 0.0146839 -0.025405 -0.00240824 -0.00488927 0.0186704 -0.0111416 -0.00776928 0.017334 -0.0403387 -0.0019451 0.0219572 0.0158304 0.0241684 0.0411817 0.012623 0.0146596 -0.0187369 -0.00606579 -0.0101105 -0.0032562 -0.0210145 -0.0127316 -0.0147395 0.0084918
" 0.479233 -0.0939554 0.117771 -0.0857711 -0.248617 -0.220828 -0.0706277 -0.028978 0.11281 -0.0677411 -0.103583 0.0664053 -0.0491322 -0.121052 0.0887446 -0.106024 -0.0518947 0.0301713 -0.0517144 -0.0345707 0.053691 -0.0374343 0.0191687 0.0138928 0.0697243 0.150736 -0.00407219 0.0486842 0.0383286 -0.0333973 -0.0531614 -0.0406291 -0.0577886 0.0983964 0.0574765 0.114909 0.0557306 -0.0697545 -0.082458 -0.00937629 0.109815 -0.063417 0.00315045 0.0693926 -0.0678112 0.0201133 0.0540463 -0.0122988 -0.0220035 -0.0189606 -0.0235241 0.0173396 0.00277915 -0.00335359 -0.0263145 -0.0452066 -0.00959366 -0.0101986 -0.00643536 -0.0085212 -0.0198528 0.000120813 0.0590905 0.003431 0.0752597 0.0287527 0.0737719 -0.0109339 0.0134193 -0.0147855 -0.0180536 0.0285969 0.0202455 -0.029447 -0.0145571 -0.0207899 0.0108117 -0.0161706 0.0241057 0.023909 -0.000420032 0.0129293 0.00328331 -0.0061012 0.0311356 -0.0201999 0.00652707 -0.0114127 -0.0190366 -0.0111764 -0.0144125 0.00826582 0.000231817 0.00412837 0.00648844 0.0212945 -0.0078787 -0.03184 -0.00969069 -0.0155822
ἐπί -0.131158 0.181157 -0.218306 0.141527 -0.160843 0.0273079 0.0737414 0.13411 0.306119 0.0727986 0.0466487 -0.119734 -0.122605 -0.00895411 0.253018 -0.144919 -0.0730535 0.0176002 0.11088 0.064431 -0.122472 -0.0911497 0.000152124 -0.0594884 0.0602302 0.0925612 -0.0583836 0.0289873 -0.0234485 0.056142 -0.0367233 0.0930907 0.0256225 -0.112484 0.0774068 -0.0105449 0.00318284 -0.00430882 -0.000978139 0.0166018 -0.0167994 0.0146487 -0.0370175 -0.0464205 0.0710066 0.0566493 0.0391983 0.0302541 0.0658138 -0.00980566 0.0132566 0.00384023 -0.00892506 -0.0140736 -0.00986012 0.008074 -0.0384301 0.000547527 -0.0463078 -0.0179378 0.0393987 -0.0246464 0.0149276 -0.0207737 0.00682843 0.0347849 -0.021518 -0.014784 0.0137397 -0.0525892 -0.036433 0.0159021 0.0228244 -0.0226944 0.0174306 -0.0376789 0.0315592 -0.00584811 0.0112322 -0.00560469 -0.0367947 0.0304213 -0.0221084 -0.00391516 -0.0287041 -0.0256844 0.00709144 -0.0222163 -0.000537615 0.0043591 -0.000576066 0.0211407 0.0201431 0.00508072 -0.0327034 0.0346782 -0.0313583 0.00624178 -0.00223697 -0.000924861
αὐτός -0.02002 0.0984607 0.142558 0.0152254 -0.0308489 -0.200671 -0.0968539 -0.255071 -0.112778 0.0156174 0.0676368 -0.189826 -0.105225 -0.06348 -0.0751958 0.0429048 0.0165646 -0.107933 0.0724896 0.0526731 0.061848 -0.0120421 0.00159925 0.00182384 0.0401659 -0.160209 -0.10743 0.123418 0.0516864 0.0472977 -0.0150908 0.0205871 0.0863956 -0.0476037 0.0366753 -0.00763505 -0.0645187 0.0901073 -0.0165351 0.0301543 0.0776336 -0.0136677 0.0475604 0.0141875 0.144418 -0.0719788 0.0387622 0.0309659 -0.00296605 0.0505744 0.0145828 -0.0223961 0.105082 0.0767625 -0.0678959 -0.0616368 -0.0139829 -0.0439072 0.0287348 0.0349467 0.0411498 0.00497626 -0.0318795 -0.0113269 -0.0281177 0.0155392 -0.00993265 0.0359056 0.03048 -0.0111321 -0.0203823 -0.0061328 -0.0492094 0.0411118 0.0127454 -0.0152886 -0.0205604 0.00340801 0.0309294 -0.0322194 -0.0182225 -0.00504252 0.0330752 -0.0443128 0.0528486 0.0313414 0.00496558 -0.0049197 0.010576 -0.0165016 0.0330857 -0.0327894 0.0163903 0.000301803 0.00192364 -0.0160598 -0.0109752 -0.000938388 0.00957395 0.00444065
πᾶς 0.0878108 0.144714 0.255706 -0.153403 -0.0925517 -0.117582 0.235032 -0.167686 0.00695438 -0.0309124 0.179779 -0.0662243 -0.219201 -0.0410056 -0.0410955 0.0525482 0.0622474 -0.0141697 0.0429973 -0.179244 0.068069 0.0110558 -0.14996 -0.0435769 -0.00616157 -0.126634 0.14876 -0.102014 0.107019 -0.0329786 0.0355742 -0.0234268 0.00983659 0.000305505 0.0217628 0.115403 0.0859118 0.0216452 0.0493855 -0.0348546 -0.0244989 -0.0577843 0.0377956 -0.0269518 0.0221753 -0.00353351 0.0379882 0.0211621 -0.0280992 0.116474 0.00624281 -0.0781179 -0.0230733 -0.0398782 0.0532765 -0.0415808 0.02456 -0.0214342 0.00469192 -0.0298156 -0.0208025 -0.0184971 -0.00106871 0.0215688 0.0316324 -0.00949223 0.00409166 -0.00599173 -0.0405065 0.0151387 -0.0191165 -0.0399564 -0.0107856 -0.0253189 -0.0320998 7.07265e-05 -0.0199288 0.0178764 0.0146549 -0.00196886 0.029723 -0.011654 -0.010389 -0.0435878 0.00887384 0.0270105 0.00798248 0.0018762 -0.0174216 -0.0106105 -0.0219578 -0.0030599 0.0116648 0.0389818 -0.0343878 -0.0170003 0.00787711 -0.0323234 0.0094477 -0.0184958
γε 0.298446 0.153614 0.0170782 0.0804475 -0.033075 -0.0913806 -0.0373414 -0.0560088 -0.0376864 0.00225727 -0.229088 -0.0773998 -0.169743 -0.030732 0.074599 0.184565 0.0411491 0.0606396 0.0474653 0.0585244 0.201841 0.107053 -0.0977637 -0.0326291 -0.0397588 -0.0716717 0.122104 0.0429111 -0.114018 0.176643 -0.0407236 -0.0582306 -0.100799 -0.0889303 0.100245 0.0401194 0.026959 0.0179856 0.00861087 0.0365368 -0.0596316 -0.0352793 0.0588817 -0.00873251 -0.0362766 0.0328397 0.029604 -0.0584114 0.0148196 -0.0678658 -0.0366642 0.0547812 -0.0272045 0.00383582 0.053627 0.0385936 0.00422135 0.00678653 -0.0102361 4.83389e-05 -0.00804595 -0.0325441 0.000946372 0.0483613 0.0404295 0.0204934 -0.00711689 0.00639784 0.00636069 0.0171435 -0.0241826 0.00456576 -0.0101692 -0.0146174 -0.012155 -0.012796 0.038626 -0.0236308 0.0202731 0.0286907 0.00225318 -0.00430414 -0.0581532 0.0139707 -0.00108879 0.0121389 -0.0061835 0.0276174 -0.0351467 0.00628613 -0.0155402 -0.0165265 -0.0130753 0.0208464 -0.00515006 -0.0338989 0.0262333 -0.0137074 -0.0152689 0.00495881
ἀνήρ 0.228179 0.129728 0.193747 0.140333 0.164893 0.152011 -0.0300657 -0.0802415 -0.0988326 0.189602 -0.0798071 -0.0510553 -0.248392 -0.158915 -0.0925677 0.0980657 0.0602209 -0.00272635 -0.0304937 -0.0328739 -0.04071 0.0968897 -0.0806882 0.0623098 0.0022917 -0.00439091 -0.0471429 -0.0990336 -0.0107279 -0.00465525 -0.00135314 0.0215614 -0.0411503 -0.106618 -0.0386199 -0.00744972 0.00520817 -0.142638 0.00978852 -0.0510425 0.0191801 0.00951379 -0.0172904 0.0274485 0.0109794 -0.0464167 0.0189319 -0.0212286 0.127624 -0.136533 0.082715 -0.0415338 0.0649714 -0.0106833 -0.0138761 0.00327818 0.00177378 0.00331247 0.0103216 0.0714446 0.0298072 0.0221947 -0.00459066 0.0469366 -0.0178106 0.00712761 -0.0427237 0.031604 -0.0421951 0.026757 0.0205777 -0.0267478 -0.00305442 -0.0047221 -0.00335547 -0.0177466 0.00261127 0.0128516 0.0141146 -0.0236128 0.0024956 0.0126717 0.0127354 -0.00681079 0.0516215 0.0261993 0.00161026 -0.00491554 -0.0196724 -0.0156612 0.00665268 0.0143679 -0.00946214 -0.0331926 -0.0103127 -0.0147608 -0.0113862 -0.0152299 -0.0129259 -0.0154998
ναῦς -0.0182159 0.222582 0.165389 0.339834 0.0888283 -0.258731 0.0202777 -0.232235 0.0671598 -0.135935 0.00858408 -0.132857 -0.0986697 -0.00625048 0.0464622 0.0613391 -0.0363343 -0.0548687 0.029882 0.0852593 -0.0861939 -0.150531 -0.0925006 -0.0201309 -0.129201 -0.0755535 0.113494 0.0679793 -0.0547397 -0.0230604 0.0562037 0.146344 0.0671692 -0.047628 0.061892 0.0486162 -0.0740616 0.0227628 0.0197164 0.0674587 0.0936889 -0.00530578 -0.0580547 -0.038657 -0.054172 0.0388383 -0.0215799 0.0774887 0.0289853 0.0455721 -0.0107237 -0.00122233 -0.012279 0.00388806 -0.00640715 -0.0410962 -0.0835147 0.00751981 -0.0149493 0.00775177 0.0108027 -0.0122452 -0.00107819 0.0176766 0.0106375 -0.0116774 -0.00600156 -0.00643179 0.0169836 0.0113749 -0.00330781 0.00300337 0.00346592 -0.02076 0.030021 -0.0163329 0.00588936 -0.0111841 -0.0471128 0.029039 -5.82428e-05 0.00620048 -0.00238316 -0.0149096 -0.0236429 0.0140296 0.0208144 -0.0237869 0.0207743 0.000231389 0.00459459 -0.00980679 0.0302822 0.0291399 0.00328728 -0.000794538 -0.00271726 -0.0193533 0.00168967 0.0132514
δή 0.290704 0.0270264 0.0575301 0.168295 -0.0817691 -0.117051 -0.0133957 0.101899 0.0510721 -0.0534794 -0.111439 -0.0110522 -0.172766 -0.0414357 0.104737 0.0301348 -0.0638957 -0.15491 -0.093052 0.0485577 -0.128393 0.257335 0.00186089 -0.0417963 -0.147654 -0.109397 -0.161196 0.0565715 0.0616463 -0.0936186 -0.100077 -0.110357 -0.0388717 0.0340696 -0.084716 -0.0394319 -0.0615289 -0.0251183 6.95447e-05 0.0118936 0.0751574 -0.0200641 0.0174562 -0.0177548 0.00598682 -0.0148401 0.0484997 0.0304138 0.0547399 -0.0526481 0.0197531 0.0217854 -0.00817593 0.0151714 -0.0174395 0.0016549 -0.0294155 0.0229097 0.0123536 0.00586282 0.00812392 -0.0299189 -0.0341309 0.0414514 -0.0509887 0.0137968 0.0274722 0.00775806 0.0494363 0.00477893 0.0543863 0.0145924 -0.0156544 0.0100639 0.0187329 0.0521319 -0.0274491 0.00343787 0.00812551 0.0170386 -0.00378467 0.029699 -0.00315041 0.0230674 0.0164901 0.0217861 -0.0173942 0.0219621 0.0280033 0.0282917 -0.0102655 -0.0162215 0.0197282 0.0313601 -0.0169194 -0.0121578 0.00548365 0.00219271 -0.0101092 0.00822902
ἕ -0.0311404 -0.00690337 0.0568479 -0.126415 -0.0584995 -0.0604495 -0.16947 -0.092036 0.0563619 -0.039309 -0.045879 0.0322248 -0.200313 -0.210276 -0.0612048 -0.0129746 0.0941477 -0.0687401 0.216131 -0.0495113 0.0174511 -0.0471765 0.0287817 0.0897314 -0.105472 -0.154393 0.0347982 0.0974303 0.166763 -0.000423269 -0.0609255 -0.0562872 0.0808092 -0.00706583 0.0171474 -0.0248245 -0.0515933 -0.051896 0.176313 0.00250866 -0.0144311 0.0553722 0.0386657 -0.101983 0.0127578 0.0132685 -0.0349509 -0.0427095 0.0796861 -0.0606657 -0.0171772 0.0320545 -0.0420172 -0.0518518 0.00282437 0.0344304 -0.089274 -0.0372192 -0.000760082 -0.09157 0.00661719 -0.0151294 0.013102 -0.0137482 -0.00781936 -0.0309587 -0.0269013 -0.0478059 -0.0374536 -0.00460431 -0.00165846 0.00306996 -0.05529 0.0249608 0.0230204 0.0215687 -0.0481903 0.0258264 0.0386256 -0.0146599 0.0286743 0.00764074 0.0162767 -0.0247324 0.0318336 0.00338395 0.0241927 0.00163395 -0.00162364 0.0308907 -0.00314051 -0.00722202 0.0263771 0.00463203 0.0185018 0.0269095 0.00502068 -0.018839 -0.00132028 -0.031512
ἐκ -0.0931742 -0.0485206 -0.0327641 0.0977034 -0.200897 0.0709137 -0.11418 0.265776 0.146314 0.106742 0.072226 -0.0860196 -0.1491 -0.244195 0.0118617 0.0269362 0.13195 -0.0543512 0.0775667 0.0550588 -0.037657 -0.0112421 -0.159447 -0.00689099 0.00704198 0.0815945 0.0129921 0.0778341 0.16629 -0.0106262 0.146789 0.158223 -0.0718584 0.0675425 0.00181661 0.00109624 0.0026525 -0.0410092 -0.0908469 -0.0293665 0.0725 0.0465613 -0.000305237 0.0871083 0.0152346 -0.0148819 0.0637449 0.0716121 0.0703257 -0.038238 -0.00399618 0.0540025 -0.0525757 0.0139747 0.0321381 0.0131742 0.0190928 -0.039771 -0.0169532 0.041441 0.0372903 -0.0246905 0.0187008 0.0112685 -0.027978 -0.00422372 -0.000472164 -0.0391619 0.0189334 0.00117179 0.00448491 0.00535892 -0.0365516 -0.0134276 -0.0135248 -0.0258822 0.0234107 0.0312944 -0.0119684 -0.00343325 -0.0135276 -0.00913693 -0.0320844 0.00607123 -0.00361352 -0.00698282 -0.00117397 -0.0323145 0.0312766 -0.0175781 0.0108596 0.0336248 0.0568483 -0.00140064 0.00411174 -0.0014715 -0.0512455 -0.0117754 -0.00302044 0.0107846
ἀτάρ 0.0153791 -0.000330325 0.0858805 0.155856 -0.188563 -0.139324 -0.0679612 -0.135891 0.0514751 -0.107912 -0.0815937 -0.0611744 -0.338226 0.00326764 0.138529 -0.0770256 -0.0244279 -0.00779255 -0.0635683 0.00537497 0.018814 0.0560908 0.0360689 -0.121 0.110791 -0.0992108 -0.051634 0.0336889 -0.103224 -0.0270021 0.146534 0.0383558 -0.196354 0.0193837 -0.0946992 0.0940098 -0.0772276 0.0984175 0.0096837 -0.110474 0.0867701 0.0376355 -0.0821069 0.0844799 0.0597629 -0.0318926 -0.0250976 -0.00237274 -0.00188931 0.00757649 0.0542116 -0.0489256 -0.0305654 -0.0546095 0.00361217 -0.0402476 -0.00593817 -0.00903106 -0.0215493 0.00979409 0.0133745 -0.021537 -0.000409838 0.00775745 -0.0088329 -0.0188614 -0.0337328 0.0169808 0.0255866 0.023963 -0.0116864 -0.0378191 -0.011276 -0.00279656 0.0104851 -0.00123661 0.005184 0.00567362 0.00420746 0.0167928 0.0139713 -0.0083695 0.0108088 0.0319154 -0.0241802 0.0174754 0.0127163 0.00215082 -0.00505022 -0.0227296 0.0158641 -1.76884e-05 0.0232634 0.0379683 -0.0247024 -0.00993179 -0.00534238 -0.0152136 -0.000793347 0.0313035
κατά -0.0617842 0.173856 -0.205781 0.0671735 -0.0825856 0.0553913 -0.181115 0.0551221 0.0779348 0.335362 0.0190405 -0.0766294 -0.152644 -0.071066 -0.0589516 -0.200902 -0.0872308 0.0246765 0.106338 -0.0173171 -0.0164505 0.0143521 0.02683 -0.224735 -0.0367363 0.0564913 -0.0364721 -0.0284083 0.0819698 0.0252816 0.0591145 -0.00764933 -0.0655967 -0.112628 -0.00474082 0.0249343 0.011255 -0.0454767 0.00405982 -0.0059795 0.0369832 0.00600599 0.00716598 -0.0531255 -0.00379864 -0.021887 -0.0314074 -0.0361831 -0.00492867 -0.00409729 0.0329718 0.00895286 0.0736725 0.0165978 -0.00353294 -0.00804146 -0.0361737 -0.0622699 0.019432 0.0194826 0.00165997 -0.051048 0.0169537 -0.0528189 -0.0407708 -0.0145491 -0.0187566 -0.0117337 0.0273411 0.0255196 0.0386636 -0.0287164 -0.026857 0.00840638 -0.003214 -0.0271843 0.0332288 0.0473482 0.0183945 0.00845471 0.0349716 0.0203297 -0.0198848 0.0241332 0.0273621 -0.0113886 -0.000341416 -0.00215251 -0.00469248 -0.00472859 -0.00394309 0.0319382 0.00690706 0.00499784 -0.0426677 0.00824798 -0.0233377 -0.0432969 0.0267584 0.0107484
πολύς 0.103506 0.272479 0.308839 -0.0130173 -0.00924474 0.187013 -0.0367056 -0.218829 0.0957861 0.0163599 -0.0583866 -0.00715486 -0.0742307 -0.142508 0.104447 0.0175423 0.080948 -0.0148634 0.00465843 -0.122452 -0.104565 -0.0478882 0.032744 -0.0161227 0.0284899 -0.0608463 0.0205882 0.00891905 0.0796735 -0.119936 0.153579 0.0234255 -0.0620524 0.145183 0.0147129 0.069747 0.00596043 -0.0286576 -0.0238698 -0.127681 -0.0625479 0.0195541 -0.00532931 -0.156256 0.0153169 0.0482695 0.00130151 -0.00335063 0.0694518 0.013502 -0.037279 0.00174749 0.000772376 -0.0492218 -0.0544527 -0.0433905 0.0341732 -0.029548 -0.00966657 -0.0138432 -0.0249994 -0.00560049 -0.015347 -0.0229895 -0.0410135 0.0362276 0.0496802 -0.015082 0.0318646 0.019905 0.00192281 0.0223945 -0.0154727 0.0530019 -0.0386745 0.030694 0.0206468 -0.0177074 0.0427756 0.00931975 -0.00850798 0.0212343 0.0495968 0.0144962 0.00966289 -0.00294298 0.0231537 -0.00509596 0.0113027 -0.0122264 -0.0230142 0.0571212 0.0305641 0.0290758 0.016043 0.0188682 -0.00438033 -0.00732842 0.0165815 0.00458862
εἰς 0.06917 0.0387683 0.0820793 0.37359 -0.286201 0.0433071 -0.0644562 0.226809 0.108386 0.0853928 0.000789726 -0.246476 -0.00510278 -0.10637 -0.144686 -0.071329 0.00414854 -0.0404173 0.0618098 0.10452 -0.0263275 -0.0644002 -0.181296 -0.0933052 -0.0131571 0.0407201 -0.0199029 0.0205262 -0.00083195 -0.0862689 0.0197276 0.0505792 0.0137985 -0.0745481 0.0612578 0.0234555 0.0212856 -0.0351768 -0.0546074 0.0400597 0.0771992 0.0180968 0.0371282 0.024026 -0.00906636 -0.0951203 -0.0317674 -0.00344686 0.0574069 0.00103761 -0.00244194 0.0337408 -0.0249114 -0.0839832 -0.0654657 0.0145135 0.01441 0.00674595 0.0182499 0.00541903 0.0495308 -0.0488619 0.0433358 0.0114527 0.00123933 -0.0355872 -0.00160386 -0.00851529 -0.00637088 0.0310485 0.0304649 -0.0278179 -0.00381023 -0.043298 -0.0109473 -0.0345382 0.036737 0.0107434 -0.0133877 -0.0117322 0.0142089 0.0249395 0.0187364 0.00973631 -0.000906573 -0.0250262 0.00176187 -0.0149233 0.0109463 -0.00346509 -0.000616743 0.0178847 0.027505 -0.00663043 -0.017598 0.000179283 -0.0208097 -0.0100622 -0.0146086 0.00603573
φημί 0.188953 -0.145085 -0.163848 0.00600753 -0.0771175 -0.295847 0.0592619 -0.146218 -0.100965 0.158586 -0.0237979 0.220271 -0.122553 -0.101248 0.0051111 -0.000691972 -0.0327214 0.137728 -0.0243857 -0.12701 0.0603233 -0.0772117 -0.00817478 -0.0119326 0.115641 0.0354139 0.0101502 0.0275921 -0.0387838 -0.0236751 0.0514584 0.186997 -0.111659 0.0176127 0.000775587 -0.0481215 0.0428257 -0.0305359 0.0148622 0.117972 -0.0113755 0.0976149 0.0787026 -0.0811235 -0.002022 0.109871 0.00358947 0.029123 0.0961041 0.0173661 -0.035246 -0.0188963 -0.022132 -0.0182362 0.0438004 0.0185995 0.0193683 0.0276939 -0.00841352 0.00929289 -0.0249062 0.0173496 -0.00565287 0.0513285 0.00821508 -0.0299501 -0.0136412 0.000524308 -0.0241394 -0.0183608 -0.00542147 -0.0451909 -0.0149708 -0.00686589 0.0116319 -0.00788659 0.0298754 0.0147095 0.0242133 -0.00931704 -0.0121636 0.00597096 -0.0364346 0.00952903 -0.00293057 -0.0213733 0.007287 0.0154085 0.032471 -0.0156984 0.00458544 -0.00776468 0.0275899 0.0488261 0.0177357 0.0174901 -0.0283186 -0.00613055 0.00221989 0.00901631
εἰ 0.378835 0.127074 -0.0122533 0.0718131 -0.0580403 -0.106625 -0.131593 -0.0340254 -0.158698 -0.136549 0.0174467 -0.23189 -0.154708 -0.0729294 -0.163181 0.109295 0.0499325 -0.23401 -0.00296327 -0.163412 0.0590093 -0.156288 0.0252327 0.0204655 0.125922 0.170129 0.0131972 -0.0674098 0.03179 -0.0707544 0.0957304 0.0906181 -0.0301251 -0.0255838 -0.000482578 -0.075509 0.0796055 0.0685627 -0.0452858 0.0161815 0.101742 0.0271877 0.00396979 -0.0160815 0.0165323 -0.0024077 0.037406 0.0206465 -0.0215486 -0.0154203 -0.0140656 0.0360752 0.00536739 0.0148733 -0.0420433 0.0191698 0.00483127 0.0290846 0.0040482 0.0209292 0.0284152 0.012674 0.0148899 0.00121351 0.0112005 -0.0251913 0.032808 -0.0214414 -0.00403871 -0.00881621 0.0116365 -0.0459549 0.0113263 -0.00383736 -0.00194789 0.00794781 -0.0238343 0.0175706 -0.013038 -0.0209444 -0.000582949 0.0136384 -0.014844 0.0057622 0.0290481 0.024542 -0.0293745 -0.0139652 0.00554805 -0.0136027 0.00491493 0.00131956 0.0148038 0.0128153 -0.0264974 -0.0140903 -0.0230972 -5.18204e-05 0.0236891 0.000124555
ἄλλος 0.285014 0.135371 0.145735 -0.0715904 0.0445122 -0.00949258 0.213872 -0.265135 -0.176279 0.0804021 -0.0269957 -0.241405 -0.150024 0.0167058 -0.111038 -0.0510518 -0.0181078 -0.0542312 0.095226 0.0274773 0.135907 -0.134508 -0.136868 -0.148682 -0.0859754 -0.0579453 0.167262 -0.0160027 0.0982335 0.00136506 0.00937647 -0.00368717 -0.0123813 -0.0126621 0.0611364 -0.0150254 -0.04702 0.00214161 -0.0258381 0.0186205 -0.0900451 0.00159459 0.0662376 0.115757 0.0580031 -0.0519623 -0.00224291 -0.0447765 -0.0628242 -0.0164356 -0.0250327 0.00783019 -0.0309587 0.0023436 -0.0201589 -0.0100304 -0.027959 0.0287936 -0.00985767 -0.0161026 0.00883446 -0.0295598 0.0197511 0.0194807 0.00125699 -0.00182029 0.0154546 0.00263244 0.0182717 0.0130379 -0.00363426 0.014954 0.00569149 -0.0357503 -0.0290689 -0.00136474 0.0200561 0.00123267 -0.00151173 -0.0124711 -0.0362077 0.00418956 0.00309745 -0.0380433 -0.0162316 0.0012933 0.0271258 0.00271352 -0.0101002 -0.000906853 -0.0116566 -0.0247203 0.00841122 0.0185262 -0.00414306 -0.0497603 0.00785217 0.00499538 0.00539989 -0.00257327
ἔρχομαι 0.178538 0.0510861 0.0949307 0.415373 -0.0677281 -0.14423 -0.0604687 0.062599 -0.293531 0.0675925 0.0139734 -0.0310578 0.0362774 -0.0873393 0.0827451 0.0913962 0.0460252 -0.000462157 0.014162 -0.0759988 -0.0946771 0.173557 -0.0356681 -0.00455114 0.0215812 0.076212 -0.000485772 -0.0856844 0.0711197 0.0764977 0.0064988 -0.105846 -0.0121951 0.0905292 0.0896397 0.0225121 -0.123717 -0.0511787 -0.0512471 0.0378485 0.0390295 -0.102659 0.00825979 0.0307512 -0.0647406 0.0353413 -0.0363224 -0.00210276 -0.0545086 0.0938722 -0.0345986 -0.0260245 0.0485639 0.00203153 -0.0708397 -0.024013 0.00154357 -0.0078066 -0.0604935 -0.0283186 -0.0286025 -0.0285904 0.00170084 -0.025098 -0.0267315 -0.0104784 -0.0269331 -0.0357497 0.00231231 0.0578256 0.00298966 0.0321352 -0.0037219 0.0240113 -0.00947066 -0.0146581 -0.00275103 -0.0241007 0.0059358 0.0346443 0.0182174 0.00744924 -0.00530741 0.0131575 -0.00120567 -0.00624213 0.0317114 0.0118831 -0.0177141 0.00622433 0.00651994 -0.00378716 -0.0283117 0.00665249 -0.00727494 0.0085072 -0.00961402 0.00380782 -0.00161019 0.00700944
θεός 0.310955 0.0230255 0.286387 -0.120612 -0.0034679 -0.123653 0.0945381 0.164665 -0.159865 -0.0372545 -0.0712431 -0.00742599 -0.194225 -0.0734275 -0.00229744 -0.140627 -0.000746226 0.0679762 0.115897 0.0465751 0.053069 -0.163933 0.168098 0.0720313 0.0661689 -0.0344631 -0.0439552 0.0517177 0.0581491 0.00845394 0.0294619 -0.081668 -0.0401378 -0.0826511 0.0333309 -0.11841 0.0291231 0.0783222 -0.0332622 0.0544346 0.0489966 -0.016772 -0.0593393 0.0358028 -0.0129177 -0.0134062 -0.0535979 -0.00147133 0.0723047 -0.0655367 0.0171684 -0.000131607 -0.0378998 -0.0136807 0.0569358 -0.0134282 0.0114247 -0.0234407 0.0640871 -0.038813 -0.0741314 -0.062765 0.0144542 -0.0227762 -0.0142166 -0.0239284 0.00402736 0.0179123 0.00858425 0.0251476 0.0215841 -0.0437653 -0.0301119 0.0381642 0.0026919 0.020208 0.0299489 0.0269442 -0.0229577 0.00658067 -0.0390397 0.00984264 -0.00810987 -0.0066195 0.0079867 -4.50048e-05 -0.00462285 -0.0212168 0.0339066 0.0365258 0.00132514 -0.00463518 0.00727799 -0.00413045 -0.0235829 0.0103856 -0.0227439 0.0133037 0.00351012 -0.0288761
θυμός 0.213437 0.108976 0.0218832 -0.181348 0.0897724 -0.432263 -0.243227 -0.333346 0.0311965 0.0615084 0.0679182 -0.0195922 -0.0243165 -0.0066092 -0.0520095 -0.0264835 -0.0684547 0.0254832 -0.0100842 0.0447026 0.0303713 0.00990242 -0.0534965 -0.0639871 0.00429792 0.032548 -0.0681165 -0.0311108 0.0130646 -0.0745114 -0.0530158 -0.0260931 -0.0497297 -0.120052 -0.00759254 0.0130366 -0.0126189 0.0622236 -0.0160763 -0.0807436 -0.170691 -0.00472821 -0.0408747 -0.0554985 0.00588893 0.0513987 -0.0756894 0.0559171 0.0127879 0.0688182 0.000217853 -0.00893801 -0.0111175 -0.0417569 -0.0391413 0.0362824 0.00573537 -0.0336615 0.0103023 0.0158697 -0.027969 -0.00847127 -0.00585473 0.0030987 -0.00994588 0.0390263 -0.0152694 0.00426142 -0.0290504 0.066617 0.000666279 0.0189817 0.0113057 0.0164553 0.00833957 0.00874112 -0.0129023 0.0198848 0.00571344 -0.0057378 -0.0280482 0.00504308 -0.0152896 0.0223398 -0.008842 0.0281164 -0.00737962 0.0248744 0.018149 -0.0177945 -0.00254131 -0.0022118 0.0139882 0.0102094 -0.00724087 -0.00340376 0.00669996 0.0139119 -0.0194181 0.021245
ἔχω -0.0282234 0.108299 -0.0882764 -0.0780317 -0.21934 0.185284 -0.191663 0.0272518 -0.2253 0.0626764 -0.00258239 0.138119 -0.20963 -0.00573956 -0.052972 -0.146121 -0.0286506 -0.0480799 0.0856849 0.0138262 -0.0345916 0.100321 -0.0176259 0.209822 0.110358 -0.0269183 0.169911 -0.0471477 -0.0267737 -0.00779406 -0.0206664 -0.0873028 0.117315 0.0399442 -0.0298648 0.0517939 -0.0870543 -0.0831737 0.0161013 0.0564798 0.0289083 0.0757893 0.0116979 -0.118092 0.0488278 -0.0908445 -0.047371 0.0298922 0.0297842 -0.00484063 0.0181473 0.0306934 0.00452372 -0.0151022 -0.0178208 -0.0158596 0.0294095 0.0752296 0.0464228 -0.0199903 -0.0187116 -8.43294e-05 -0.0250094 -0.00366534 0.0222175 -0.0403808 -0.0204518 -0.00139642 -0.010681 -0.0132131 -0.0113592 -0.0213461 -0.0402981 0.0625723 -0.0056205 -0.0183727 -0.00276516 -0.0119562 -0.00866928 -0.0173288 -0.0141599 -0.0308585 0.0227939 -0.00393505 0.0214871 -0.0102167 -0.00611808 -0.00657855 -0.0314974 0.0333709 0.00680063 -0.0403452 0.0118506 -0.0103352 -0.0128105 -0.00167283 0.00202921 0.0248347 -0.0194874 -0.00317773
ἐπεί 0.194075 0.163057 0.060236 0.0613935 -0.0792125 -0.0543985 0.00200784 -0.0839909 0.155201 0.071741 -0.0258527 0.00490503 -0.222821 -0.0575011 -0.0218271 0.0501414 -0.104446 -0.058335 0.0234463 -0.0293415 0.270224 -0.0252439 -0.132099 -0.00573411 0.136859 0.1663 0.0614807 0.00397108 -0.195507 -0.0418128 0.068275 -0.034225 -0.038573 0.111225 0.101548 0.0459565 0.0597633 0.104082 -0.075372 0.0418951 0.0199459 0.0115755 0.0307899 -0.053834 0.0887402 0.0758761 -0.0429962 -0.0159844 0.0324801 0.0117802 0.0173935 -0.01092 0.0243588 0.0270261 0.0089411 0.0137098 0.0115353 -0.0410063 0.00469736 -0.00969222 -0.0155701 -0.00305493 0.0131247 0.00513028 -0.015153 0.0322758 -0.0252292 -0.0170627 -0.0271875 0.0155498 0.0120279 -0.0221399 -0.0348423 -0.0251936 0.00971122 0.00702388 0.02133 -0.013494 0.0212349 -0.0259712 -0.0370691 -0.0146288 -0.0312161 0.021559 -0.0276595 0.0206231 -0.0092363 -0.00751163 0.0138656 -0.00630257 -0.0606426 -0.00221346 -0.0116241 0.0283988 -0.018786 0.0150861 -0.0367006 -0.0312061 0.00513169 -0.00735882
νῦν 0.528629 0.223247 -0.018271 0.0410903 -0.0978407 -0.185963 -0.0429238 -0.133963 0.0110702 -0.122447 -0.020812 -0.111911 -0.138676 -0.018845 0.0245439 -0.0324498 -0.0820132 -0.128756 0.0378726 -0.00152339 0.0341208 -0.0137703 0.0515735 -0.0490441 0.0546339 0.0691789 -0.151316 -0.0733777 0.0336139 0.00777991 0.0364318 0.159166 0.126234 -0.0432732 -0.0331806 0.0912446 0.0615354 -0.130649 0.048153 0.0470432 0.00294015 0.00762322 0.0564806 0.0127361 -0.00030199 0.000287858 -0.0268383 -0.0150794 -0.0460641 -0.0427921 -0.0903198 0.0264521 -0.0332755 0.0516999 0.00412232 -0.00783591 0.0226985 0.000362385 -0.00808151 0.035966 0.0647793 0.0399387 -0.0150272 0.0357531 -0.00747121 -0.0176811 0.0128805 0.0177392 0.00108816 -0.0191529 -0.0276373 0.0222547 0.0157375 0.0138224 -0.0163284 -0.0100304 0.0240938 0.0286584 -0.0292486 0.0139579 0.00647059 0.0388292 0.00307484 0.00864469 0.0225767 -0.0120864 0.022128 0.0344394 0.00556468 -0.0150681 0.0275332 0.0157372 -0.00277996 -0.0186039 -0.00382985 -0.00874433 -0.00810848 0.012251 -0.00541259 0.0147938
μέγας -0.027579 -0.00985382 0.0216715 -0.079663 0.0484917 0.0593863 0.0178855 0.0732109 -0.0932899 0.067849 -0.0738083 -0.0639416 -0.279109 0.043057 0.0269175 -0.146335 -0.136355 0.0109344 0.0477471 -0.0806671 -0.0121695 -0.15954 0.0546189 0.0523353 -0.135073 -0.0639268 0.138225 0.0552457 0.0447277 -0.0780683 0.136513 -0.0318403 0.0491623 0.0708463 -0.0318881 0.0089451 0.0294108 0.107158 0.0247909 0.0538223 0.0855761 0.00629617 -0.152403 -0.127115 0.0371191 -0.0208737 -0.0455395 0.0405651 -0.0165198 -0.0774449 -0.0245169 0.00470366 0.0931974 -0.00897549 -0.0042705 0.00857594 -0.00634512 0.0335192 0.0112497 0.0291204 0.00920197 -0.0309834 0.00558377 -0.00362281 0.0104199 0.0685922 -0.00378143 -0.0173092 0.0441558 -0.0072865 0.0288553 -0.0346895 -0.0156367 0.0203198 -0.00480513 0.00131724 -0.0503191 0.0218766 0.0116602 -0.00705672 -0.0382574 -0.0396196 0.0446049 -0.00804776 0.0479478 0.00765483 0.00503022 -0.0668507 -0.00194142 0.00214513 -0.00589915 -0.019089 0.0233354 0.00532054 -0.0404553 0.000650569 -0.000217413 -0.0178239 0.0212309 -0.0169381
ἤ 0.205077 0.239751 0.0185659 0.125358 0.129163 0.0222532 -0.218666 0.00214109 -0.121043 0.145646 -0.0320776 -0.249658 -0.170094 -0.0814273 -0.0197316 0.203239 -0.0364585 -0.0737749 0.0233782 0.00941211 0.00943922 0.023795 0.0294948 0.0368717 -0.0180228 0.216532 -0.0794734 0.0511731 0.0831366 0.138217 0.0425474 0.0191268 -0.119149 0.0611326 -0.0334849 0.0613977 -0.0432666 0.0931687 0.036774 0.00455909 0.0325748 0.0273075 0.00663741 0.0529415 0.0402689 -0.00258682 0.0138547 -0.0354568 0.0167836 -0.0836337 -0.029441 -0.0122792 0.0145018 -0.056875 -0.03731 0.0177449 -0.0770411 -0.0111618 0.0103604 -0.0282661 0.0891385 -0.0340471 -0.000732693 0.00836521 0.00789713 0.00216055 0.0084659 0.014401 -0.00254889 0.0047934 -0.00856621 0.00656791 0.0014331 0.0212548 -0.00552063 -0.034128 0.00102677 0.0304705 0.00314215 0.0195321 0.00877532 0.00702029 0.0269456 0.000401741 0.0136361 0.029197 0.0170447 0.00407656 0.00154322 -0.0219851 0.0341207 0.0191365 0.0157514 -0.007327 -0.0465315 -0.0106858 0.00025774 0.000656776 0.0179702 -0.00857547
Ἀχαιός 0.147431 0.0417606 0.0082479 0.265245 0.20585 0.0281513 0.0245715 -0.238714 -0.0543387 -0.123543 0.121483 0.0416753 -0.0977057 -0.0813708 -0.0864048 -0.0833791 -0.112799 -0.271685 0.1791 -0.0205647 0.017918 -0.0198453 0.0974155 -0.0392355 0.0776651 0.00931006 -0.102347 0.0583432 0.0174953 -0.0369969 -0.0202335 -0.0901715 -0.056684 -0.060796 -0.0074856 0.081761 0.115783 -0.028726 -0.103554 0.0579275 -0.147041 -0.0403377 -0.0355061 -0.0098113 -0.0132607 0.0316345 -0.0622659 -0.00637176 0.0417944 -0.0369791 0.0533956 -0.0136049 -0.0173427 0.0424898 0.002343 0.00273665 0.0195629 0.00777275 0.00770115 0.0517858 -0.0163195 0.00967286 0.0517452 -0.0301074 -0.0224394 -0.0385678 0.0149059 0.0438354 0.0165604 -0.00563949 0.0154754 0.0309323 -0.0302199 0.0196916 -0.0162075 -0.00428034 0.0364546 -0.0335967 0.0231419 0.0174715 0.0186657 -0.00197377 -0.011446 0.0103254 0.0176236 0.00652531 0.0187094 0.00516841 0.0159367 0.00937722 -0.0189757 -0.00627143 -0.00912781 0.0218778 -0.00263124 -0.0201864 0.0064237 -0.0289866 -0.00822125 -0.00379042
Ὀδυσσεύς 0.178242 -0.209973 0.0632687 0.125079 -0.0927339 -0.177302 -0.264591 -0.0629756 0.0706645 0.0186522 -0.163687 0.0894403 -0.0739765 -0.116987 -0.147631 0.016821 -0.295452 -0.0338781 0.227304 0.013411 -0.0343052 0.071982 -0.074771 0.13208 0.0512925 0.0250684 -0.104388 0.141562 0.0697324 -0.0674985 -0.00154241 0.0178365 -0.0606242 -0.000795795 0.0137814 0.0939319 -0.0379697 0.0530025 0.0101186 -0.0538344 -0.0183384 0.000815814 0.0265641 0.0180534 0.0380947 -0.0183065 0.0164119 -0.000115454 -0.011092 0.0477326 0.0494084 0.036446 0.0689612 0.00688128 -0.0768849 -0.0435631 -0.0363278 0.010153 0.021329 0.00552794 -0.0177539 -0.00838142 -0.0126156 0.0351364 -0.00932658 -5.08968e-05 0.0240237 -0.0198666 -0.0124497 -0.00058714 0.0255124 -0.00937637 -0.0081581 -0.0140867 -0.0162374 0.0113988 0.0160842 -0.011938 0.00206257 -0.00421964 0.0456814 0.0258026 0.0362677 -0.0162504 0.0183546 -0.0251153 0.00906869 0.0181651 0.00973545 0.0198885 -0.029078 0.013362 -0.00628057 0.0194053 -0.000167656 0.0126406 0.0102596 -0.0183095 0.0156345 -0.00787753
Ζεύς 0.269209 -0.14561 0.116027 -0.0276903 -0.00665047 -0.0785553 -0.0629497 0.247564 -0.126531 -0.181945 0.045623 -0.0169186 -0.272565 -0.00609743 -0.0483992 0.0136366 0.0125534 -0.0737625 0.108951 -0.0480314 -0.0380007 0.024925 0.184443 -0.0365393 -0.00980938 0.0527587 0.0518844 0.0126688 -0.0723626 0.0397629 0.0530078 -0.0519696 0.00559373 -0.132819 -0.047495 -0.0998712 -0.0701028 0.0852147 0.0140617 0.0145541 0.0323924 0.0246885 0.116135 -0.0775396 -0.147269 -0.0118351 -0.086507 0.0534309 0.0592617 0.010211 0.0283648 -0.0642556 0.0301492 0.0241686 0.0228182 0.00291627 -0.0272521 0.00193981 -0.0326552 -0.0302496 -0.0237934 -0.0490993 -0.00589923 -0.0420137 -0.0400463 0.00492717 0.0447231 0.0452146 0.0391973 0.0320439 -0.0257324 -0.02709 -0.0318064 0.0360739 0.0212228 -0.0176591 -0.0150962 0.0120128 0.0141937 -0.00979729 -0.0216062 -0.0178084 0.000287676 -0.0181855 0.00182432 -0.00418473 0.00836782 -0.018165 -0.00830798 0.0593192 0.0170696 0.0174418 0.00769346 0.00718764 -0.0414228 0.0358211 -0.0396666 0.0084556 0.0159224 0.0457938
φίλος 0.269776 -0.03776 0.00791764 0.113239 -0.19437 -0.0891995 -0.248874 -0.0561268 0.0974137 0.0190412 -0.0400491 0.183967 -0.0797853 -0.127343 0.0930455 0.0380608 0.107806 -0.20074 0.166982 0.0587972 0.0511261 -0.235984 0.130605 0.0119351 0.0282562 -0.0882582 0.059029 0.0763564 0.139357 0.0156118 0.00300534 0.00983922 -0.0172845 -0.053485 0.0348058 0.00698051 0.0801554 0.0329979 0.0378568 -0.00974404 -0.0208815 0.0618453 -0.044408 0.0639461 0.0566179 0.0929486 0.0694275 -0.0236846 -0.0247554 0.0190334 -0.0043389 -0.0334595 -0.0408494 -0.0218595 -0.0369153 -0.0110161 0.00863869 -0.00778297 0.0290474 0.00803817 0.00782043 -0.0630092 0.0269534 -0.0173037 -0.0239759 0.0102366 0.000576053 0.0148478 0.0261688 -0.0263307 -0.0139504 0.00198969 -0.0375812 -0.011362 0.044023 0.0156266 -0.027894 0.00233872 -0.015004 -0.0313273 -0.00335607 -0.0289818 -0.0206193 -0.00985739 0.0350733 -0.0157319 0.0267851 -0.0100918 0.0220864 -0.0141064 0.00843149 -0.0199288 0.00401016 -0.000136757 -0.00226278 -0.006791 0.0212291 -0.0166778 -0.013694 -0.031641
μιν -0.0189653 -0.000277672 -0.00175923 -0.0596059 0.0774363 -0.21786 -0.297604 0.0628884 0.0933613 -0.0447487 -0.0749017 -0.0799409 -0.0813895 -0.240989 0.0125611 0.0842515 0.0216027 -0.0991371 0.0508559 -0.0384094 -0.0012914 -0.00245264 0.0228512 -0.0564444 -0.121851 -0.0869568 0.0520351 0.0434527 0.0616594 -0.0664905 -0.0643775 -0.126999 0.224133 -0.0113715 0.00295893 -0.0423482 -0.100557 0.0187303 0.025964 0.00245168 -0.133506 0.0483901 0.0439645 0.0403652 0.0544359 0.0627301 0.105658 -0.0898461 0.00125207 -0.00761968 0.0114664 -0.00555111 0.0503673 -0.0748402 0.0840277 -0.0272499 -0.0227206 0.0126954 0.00886576 -0.013085 0.0434018 -0.0277451 0.0162645 -0.0469996 0.0416652 -0.0130383 -0.0116079 -0.0426573 -0.0397749 0.020555 -0.0200353 0.020644 -0.0627929 -0.0315607 0.00993189 0.0111431 -0.00823593 0.0179743 0.0476732 0.0104091 -0.00941036 -0.00839988 0.00941762 -0.0104872 -0.00756757 0.00123081 -0.00355251 -0.00948866 -0.0137402 0.0151996 -0.011507 -0.0369038 0.0107697 0.00985985 0.0064841 -0.00614342 0.00431809 0.00152363 -0.0337642 -0.0269867
χείρ -0.148329 -0.0364454 -0.0228887 -0.136681 0.0987116 -0.316328 -0.182817 -0.0887522 -0.1273 -0.0782649 0.0901622 -0.108551 -0.160459 -0.0428747 0.100029 0.163803 0.0539615 -0.0361038 -0.128416 0.0780521 -0.0679269 0.0305916 -0.113946 -0.0199102 0.0649411 -0.065814 -0.0601346 0.0294466 -0.0738857 0.057469 0.0244926 -0.0622969 -0.098396 0.011119 -0.114411 0.184576 0.0674641 0.0384497 -0.0300617 0.063639 -0.00853749 0.00429859 -0.0409522 -0.00806815 -0.0787392 0.0037987 -0.0529794 -0.0798842 0.0376521 -0.0111654 -0.0518339 0.0219961 0.0383161 -0.0171368 0.0339077 0.0513311 -0.0258929 -0.0432552 -0.032955 -0.0203157 0.0169624 -0.00619945 -0.000543756 0.0558293 -0.00623213 0.0334668 0.00403354 -0.0420989 -0.00735006 0.00663503 -0.00608695 -0.0260068 0.0241499 0.0152415 -0.0334141 -0.00562346 0.0654757 0.0173153 -0.00393054 0.0414435 -0.0120845 0.00507898 -0.0163803 0.0333528 -0.00103021 0.00453495 0.0248755 0.00283592 -0.00973435 -0.0488111 0.00337986 -0.0110125 -0.0103433 0.0207756 -0.00269259 0.00770639 0.0328466 -0.00271477 0.00545835 0.0206735
Τρώς 0.143 0.0807454 0.138876 0.263452 0.346551 0.0389628 0.0515127 -0.250729 -0.127128 -0.0516158 0.125902 -0.0645161 -0.260129 1.61519e-05 -0.095671 -0.116109 -0.166864 -0.073571 0.00169143 -0.12321 -0.0590448 -0.00476502 -0.0457243 -0.10807 -0.128376 -0.0826425 -0.00345567 0.0495506 -0.0255091 0.0512551 0.106612 0.0249538 0.0977904 0.0313807 -0.0399745 -0.0243096 0.112161 -0.0900144 -0.0322123 0.0189146 -0.0272229 0.0515378 -0.0194406 -0.0361894 0.0128795 -0.0609843 0.00141371 -0.0250304 0.0475614 -0.00322947 -0.00657025 0.0147861 0.00798247 -0.00492111 0.0310235 0.017712 0.0453 0.0535871 0.0173355 -0.03218 0.0401235 0.0214055 -0.010651 -0.00324943 0.001231 -0.0128737 -0.0442548 0.0213757 0.0325155 0.0126527 0.0274645 -0.0160342 -0.0081175 0.00311815 0.0083297 0.031813 0.0053198 -0.000444868 -0.0107142 0.0202452 -0.0146575 0.000359314 0.0462414 -0.0268112 0.0209326 0.0139314 0.00728529 -0.00990191 -0.0231228 0.0287313 0.002257 -0.0282298 0.0199091 0.0243242 -0.00704918 -0.010289 -0.000370607 0.00466788 0.0088095 0.0220666
υἱός 0.115387 -0.326749 0.178575 0.0810866 0.0850833 0.0604023 -0.126823 -0.197183 -0.0710848 -0.0819482 -0.190354 -0.0636141 -0.0633865 0.0198123 0.0071078 -0.0669412 -0.105861 0.141058 -0.129968 -0.0182866 -0.0472884 -0.0876144 -0.379517 0.0128258 -0.024146 0.0161351 0.017614 0.0327937 0.00814651 -0.0676703 -0.0156094 -0.0308001 -0.0109831 -0.0165389 -0.012242 -0.0192842 0.0304266 -0.0183802 -0.00910381 -0.0514418 0.0361687 0.0190343 0.0166795 -0.113717 -0.0354037 -0.0529463 0.0544947 0.0483293 0.0596752 -0.0463771 -0.0118947 -0.0334934 -0.00127925 -0.0512198 0.0103844 0.0627987 0.0374621 -0.00412949 -0.0381597 -0.0381406 0.00220752 0.0123098 -0.0114936 0.000108115 0.0152759 0.020104 0.0146702 -0.00536899 -0.0454139 0.0113968 -0.00751755 -0.0317418 0.0270987 0.0149576 -0.000879113 -0.0109519 0.0190595 0.0253018 -0.0192701 0.0119772 -0.0125955 -0.0189878 0.0188443 0.00884536 -0.00392561 -0.0144194 -0.0170083 -0.0121968 -0.0183816 -0.0100825 -0.0155618 0.0202683 0.0202355 0.0324879 -0.00192788 0.0202769 0.0132992 0.0279343 -0.00519209 0.0066942
μή 0.253228 0.124856 -0.144529 0.0820162 0.0677216 -0.0990045 -0.261072 -0.0680667 -0.135724 -0.142927 0.0844492 -0.209965 -0.181482 -0.0389352 0.023993 0.0533093 0.036577 0.0530962 0.00880488 -0.159845 0.0713874 0.0018353 0.0318009 -0.02011 0.0546096 -0.0312279 -0.00180716 0.134235 0.0132127 -0.105015 -0.0379251 0.0570558 -0.0846959 -0.0660593 -0.00624002 0.0440531 -0.0238609 -0.0613633 0.0402338 -0.0295462 -0.0439158 0.0724932 -0.0161343 0.0719637 -0.0684662 0.0288829 -0.0755758 -0.0172231 0.0141106 -0.00814805 0.00221807 0.0120504 0.00874364 0.137785 0.0395338 0.0362669 -0.0324401 -0.00880179 -0.0186881 0.0239831 -0.0309862 0.0238997 -0.00944305 -0.0417422 -0.0103731 0.01072 -0.00387715 0.0229767 0.0737212 -0.0248111 0.0177651 -0.00276364 0.0150259 -0.0184083 -0.0247746 0.035388 0.0139909 0.0171621 0.0243334 0.0155143 0.013114 0.0202438 -0.01163 -0.00738936 0.0221614 -0.0219971 0.0191414 0.0142386 0.0177617 0.0156861 0.00627676 0.00517819 0.000951261 0.0429264 -0.00314797 0.000814312 -0.0263992 0.0106858 0.0186728 0.0223676
εἶπον 0.224229 -0.046904 -0.0984199 0.0194765 -0.120277 -0.335996 -0.00998309 -0.0328882 -0.376121 0.217662 0.143043 -0.00844893 -0.0565829 -0.0652617 0.0175397 -0.0744569 -0.166867 -0.0466614 -0.0417964 -0.02948 0.0182526 0.108478 0.0682107 0.0241412 0.0342934 -0.0227601 -0.145295 0.0344574 0.0325516 -0.0299188 -0.115798 0.129341 0.0664588 -0.0389474 0.00721497 0.0702008 -0.00913041 0.0317399 -0.032226 0.0519304 0.00383788 0.085707 -0.027268 0.0222452 0.00229337 -0.040305 0.0519942 0.0114372 0.00131289 -0.0308388 0.0222464 0.0265998 -0.0390035 -0.0604066 -0.00915061 0.0136872 -0.0296698 0.0502835 0.0303665 0.00104269 0.0142359 0.0145583 -0.00371433 0.0391241 -0.0158992 -0.00525247 -0.033732 0.025009 0.0109722 -0.0327107 -0.00302228 -0.0464911 -0.011304 0.00175842 0.0370492 0.00342789 0.00979886 -0.00667188 0.0107652 -0.00182203 0.0196615 0.010142 -0.00812205 -0.0230704 0.0165109 -0.0282965 -0.00736916 0.0287883 0.0226985 0.00200248 0.00493319 -0.0309464 0.031913 -0.000849906 0.0109531 -0.0183709 -0.00877714 0.0170342 -0.0006219 0.0073562
πέρ 0.289593 0.185888 -0.00131408 0.0466221 0.0529472 -0.0314642 -0.119163 -0.042065 -0.0372115 0.0642229 -0.131686 -0.0765599 -0.184742 -0.081886 0.0146377 0.0716618 -0.0100856 0.10379 -0.0467489 0.0499026 -0.122678 -0.0806301 0.0931186 -0.000250816 -0.000296694 -0.220408 -0.061994 0.0554713 0.00557583 0.00985029 -0.0510812 -0.115755 -0.0607663 0.0843636 0.0358571 -0.0145283 0.0735905 0.0264551 0.0858684 -0.112895 -0.125867 0.00535849 0.0582199 -0.0912381 0.0126409 0.108543 -0.0164877 0.0122774 0.0522177 -0.0431727 -0.0386035 0.0225196 -0.0122451 0.000987928 0.11336 0.0525403 0.0587934 0.0377534 0.0267225 0.00245982 0.0258351 0.0272765 -0.0456079 0.00285623 -0.00427067 -0.00412497 -0.0519048 0.0158893 0.0123851 0.043985 0.0133724 0.0129468 0.00670865 0.0163568 -0.0384439 -0.0252715 0.0188991 0.0475039 0.0196886 0.0240192 -0.00771423 -0.0182437 0.0333576 0.0412483 -0.0473927 0.0252944 0.0376444 -0.000603459 0.00626844 -0.00581351 0.0141073 -0.0160758 0.029853 0.0340012 -0.00926054 -0.0110674 0.000670473 0.0120874 -0.00254777 0.0049085
μάλα 0.227449 0.115378 -0.0788849 -0.0955329 0.0126158 -0.150536 -0.018321 -0.00439618 -0.00083271 0.125124 -0.0769199 0.0441608 -0.0586993 -0.0530098 0.0762896 -0.0356317 -0.103821 -0.138908 0.018172 0.139312 0.140191 -0.163911 -0.0294944 0.00728512 -0.0943897 0.0462002 0.0335363 0.153588 -0.140854 -0.0491447 0.0826172 0.028002 -0.0277359 -0.00873477 0.0175594 -0.0178311 -0.0983811 -0.130958 -0.0374522 -0.00173658 -0.00945007 0.011365 0.0374863 -0.117333 -0.0428409 0.00206969 -0.0492479 -0.0958613 0.0445598 0.0622878 -0.0274645 0.0472132 0.117387 0.000955873 -0.0266655 -0.00499471 -0.0404823 -0.0100184 -0.00357129 -0.0447136 0.0546875 -0.019875 0.0142686 -0.0332079 0.0260612 -0.056279 0.0206448 -0.0193282 0.0063098 0.0234826 -0.000501895 0.00309741 -0.00420956 0.028474 -0.0243888 0.0244541 0.0231964 -0.0275928 0.0345038 -0.00901847 0.00580727 -0.00649389 0.0229376 0.00999336 0.0372465 -0.00164803 0.00173 0.0135918 -0.0253065 0.00201532 0.00137106 0.0377103 -0.0337428 0.00109647 0.0192081 0.0315562 -0.0443352 -0.00408696 -0.0292992 0.0109529
εἶμι 0.00845347 0.0148349 -0.0569488 0.436491 -0.14256 -0.255101 -0.0234051 -0.0784715 -0.258916 0.137807 0.0858112 0.0256374 0.0122765 0.00378772 0.0648597 -0.03552 0.0162409 -0.105616 0.062038 -0.0445376 0.0061897 0.0401407 -0.158113 0.0667896 0.0305568 -0.113651 -0.0141251 0.0207451 0.033393 0.0794559 0.0855601 -0.167515 0.0333466 0.0750415 0.0614872 -0.00963848 -0.128887 0.0268517 -0.0661648 0.128172 0.0913897 -0.0425676 0.00359583 -0.026902 0.0243754 0.0164519 0.000290713 -0.00622468 -0.00827707 0.0472928 -0.00408538 -0.0366154 -0.0175035 -0.0242573 -0.00486621 0.084999 -0.0141906 0.00285226 -0.0436221 -0.00966006 -0.0139159 -0.028031 0.0205547 0.0144315 -0.0377601 0.00477699 -0.0108565 -0.0228978 0.0346469 0.0308289 0.0111628 0.0246634 -0.014881 0.0148045 -0.0318564 -0.00180235 -0.00961885 0.00356056 0.0185977 0.00521243 -0.0228793 0.0112026 -0.0196139 0.0250563 -0.0121671 -0.00336129 0.00349092 -0.00953399 -0.0191319 -0.0243129 -0.0164325 -0.0539483 0.0134696 0.00626668 0.00308776 0.00944863 0.0139587 -0.00820601 0.00233755 -0.021424
ἠδέ 0.100485 -0.00381022 0.216648 -0.100332 -0.0799165 0.119802 0.026248 0.0289933 -0.0861098 0.135617 0.0974695 -0.15341 -0.125946 -0.158564 0.302094 0.041344 0.018934 -0.161164 0.00917356 -0.0552478 -0.0690416 0.047461 0.0448136 -0.0908814 -0.0420184 -0.0535404 -0.0455162 0.0971642 -0.117861 -0.020611 -0.0400796 -0.0997155 0.102891 0.0376596 -0.0476261 0.0296437 0.118222 -0.0391253 0.00282117 -0.0296679 -0.0634402 -0.00907165 -0.0467022 0.0392867 0.0728497 0.124827 0.0272809 0.0304009 0.0277896 -0.0597041 0.039776 -0.0730751 -0.0552713 0.00843554 -0.0703648 0.0161763 -0.0146385 -0.00448487 0.0447563 -0.0140292 0.0330134 0.01887 -0.00340202 0.0123227 -0.0249966 0.0188662 0.0226022 0.0337278 0.00927879 -0.0218193 -0.0223286 -0.00299271 0.0252717 -0.0459633 -0.00552911 0.00819172 0.0153934 -0.01835 -0.0133328 0.026181 -0.00965112 0.00470667 0.0361851 -0.0129686 -0.0266934 0.0291932 -0.00320024 0.00657229 0.0366881 0.0429852 0.0271103 -0.0239774 -0.0255191 -0.0138615 -0.0255283 0.00924163 -0.0106505 0.00850143 0.00105563 -0.0195314
παρά -0.0951515 0.0587229 -0.133878 0.10393 -0.281439 0.108893 -0.00221172 0.0228687 0.0287914 0.0986354 0.0252344 -0.157968 -0.158637 0.157504 0.131196 0.0109681 -0.0274912 -0.0727712 0.0770923 0.144112 -0.181015 -0.228225 -0.0316692 0.0079531 0.0954297 0.132489 -0.158867 0.101299 -0.0476595 0.000846453 -0.0110946 -0.0122227 0.0349883 -0.125422 -0.0493641 -0.0352379 -0.00255673 -0.0297936 -0.00267893 -0.0497096 -0.0917138 0.0957918 0.001938 0.0342537 -0.00150973 0.0952855 0.011018 -0.0141244 -0.0201681 0.0593742 0.00320952 0.0354953 0.0218199 0.0205646 0.0103984 -0.0175291 -0.00469416 -0.00391542 -0.00891479 0.0359162 0.018583 -0.0332918 -0.00663089 -0.0110443 -0.0116674 0.0511333 -0.00964558 0.00323781 0.00684116 0.00906193 -0.0227697 0.000305256 0.0215622 -0.0202707 0.029571 -0.0172806 0.0461823 0.000745353 -0.00898926 0.0214198 -0.0198721 0.0273218 -0.0028233 0.0272576 -0.0277755 -0.0450317 0.0109701 -0.0266683 0.00195796 -0.0109214 0.0430232 0.0231244 0.00386471 0.00987479 -0.0369192 0.00208232 -0.0199436 0.0432394 -0.00550284 0.00310456
ἔνθα -0.03757 -0.0159716 0.189117 0.193778 -0.119564 0.0289191 0.0555553 -0.180494 -0.0614698 0.160393 -0.0863757 -0.0454894 -0.19287 0.153091 -0.0516593 0.102021 -0.0138903 -0.181512 -0.081302 -0.0184733 -0.0410417 -0.204873 0.0764326 -0.108982 0.0323393 0.0748787 -0.110905 -0.0601102 -0.0304247 -0.12578 -0.0385131 0.00779898 -0.0865946 0.0551838 0.0906637 -0.12854 -0.0312504 -0.020941 0.0295476 0.00809386 -0.064783 0.00405475 0.0533079 0.00600883 0.102459 -0.0244516 0.0853984 -0.0666702 0.00440656 -0.087057 0.016523 -0.00359392 0.0131161 -0.0594669 -0.0357724 0.0254608 -0.010175 -0.0051369 0.00718237 -0.0593381 -0.00252237 0.00942562 0.0149026 -0.0378116 -0.00478058 -0.00245144 0.000860657 -0.00464555 0.0192765 0.010824 0.0211415 -0.00299205 0.0310205 0.00141633 -0.0265674 -0.00674362 -0.0114484 0.0141969 0.0271885 -0.00827268 -0.01529 0.0219461 0.0485028 0.00773422 -0.00968976 -0.022407 0.0134595 -0.00817852 0.0184161 -0.0189501 0.0237927 0.0174793 -0.0221103 0.00807474 -0.0147511 -0.0312328 -0.0188048 0.00747227 -0.0037217 0.00979459
ἔπειτα -0.0528835 -0.133635 0.0583798 0.0786934 -0.140404 -0.153737 -0.00641555 -0.0677273 -0.000243891 -0.0453069 0.0834093 -0.157326 -0.154627 0.0147275 0.0401391 0.160948 -0.0834249 -0.0974372 -0.0853619 -0.0195974 0.206519 0.0146769 -0.0643623 -0.0878972 0.00996167 0.230066 0.0844595 -0.0550836 -0.0901353 -0.0562805 0.0988752 0.043354 0.00856221 0.0361922 0.16927 -0.0455963 -0.0171888 -0.0694468 -0.0251442 -0.0450062 -0.081912 -0.0793118 0.101667 -0.0810057 -0.00729294 0.0108468 0.0552417 -0.0799054 -0.058536 -0.0942653 -0.058215 0.022531 -0.00761343 0.0588837 -0.027682 0.0350383 -0.0287727 0.0144133 0.0278465 0.0459424 0.0181149 0.00680277 0.0307036 0.0339353 -0.0200854 0.0304988 0.00306278 -0.00337077 -0.012678 -0.0196794 -0.0479251 0.00794015 -0.00517467 -0.000492967 -0.0234806 -0.0207492 0.0377983 -0.00441732 0.0225377 -0.0145503 -0.037787 0.0306504 -0.0251502 0.0155191 -0.0212906 -0.0106635 -0.032202 0.0350762 -0.0030403 -0.0281497 -0.0491264 0.0301003 -0.0316063 0.0214037 -0.0201216 -0.0147412 -0.0337564 -0.0163819 -0.010797 0.0070691
ἀπό -0.208127 0.139995 -0.31411 0.127087 -0.191012 0.132594 -0.225922 0.1634 0.151967 -0.0464638 -0.0499882 0.00150471 -0.123619 -0.200958 -0.0283977 -0.178157 -0.0892936 -0.0449206 0.0568602 0.0234917 0.0401701 -0.0738076 -0.135382 -0.101066 0.046286 0.0363587 -0.0574048 -0.0509714 -0.0269647 0.0342526 0.00541466 0.0526844 -0.0629333 -0.106747 0.030619 -0.0639031 0.0409311 -0.102087 -0.0512123 -0.0338939 0.0092413 0.0504578 0.0146476 0.000772852 -0.00796098 -0.0091841 0.0369289 0.04671 0.0520703 -0.0400813 0.0295857 -0.0129926 -0.0199808 0.0636409 0.0184087 0.0533491 -0.00384126 0.013112 0.0128162 -0.0315706 0.0136081 -0.0318145 0.00137211 -0.0556918 -0.0332626 0.0144369 -0.0329055 -0.0227726 0.00705077 -0.0182438 0.0276378 -0.0295649 -0.0138922 -0.00511277 0.00245245 -0.0315273 0.0261117 0.0319281 0.0200288 -0.00783997 -0.00497712 -0.00617574 -0.043427 0.019111 0.00297008 -0.0185638 0.000841741 -0.00479762 0.00712514 0.00969122 -0.00183427 0.0326107 -9.84482e-05 -0.000818691 -0.0125322 0.00725255 -0.0132118 0.00404548 0.00575334 0.0270393
δίδωμι 0.226144 -0.00168643 0.102589 -0.06194 -0.391708 0.189318 0.0347434 -0.123569 -0.30181 -0.334357 0.0136888 -0.156287 -0.103435 -0.0850929 0.052153 0.0362458 0.0973387 0.0331624 -0.00386561 0.0821541 -0.0227655 -0.0592197 -0.0187383 0.0311841 0.0478881 -0.0264845 -0.101036 -0.0307189 0.0246605 -0.0687227 -0.00683298 0.0451429 0.038615 -0.0769071 -0.0198014 0.0437683 -0.0586395 -0.01498 -0.0552633 -0.00521351 -0.0505709 0.00739537 -0.024587 0.0068472 -0.0190473 -0.019662 -0.00711758 0.0361329 0.0247756 0.00488187 -0.0401348 -0.0588133 0.0112613 0.0297027 -0.0615964 -0.0107704 0.0385908 0.0179499 -0.00616479 0.0292655 0.0281748 -0.0187223 -0.00725073 0.0105426 0.0024542 0.0317964 -0.0410949 -0.0262622 -0.0111676 0.0202717 0.00544942 -0.00621322 0.0236386 -0.00565506 0.0192789 -0.0337513 0.00766608 0.000789596 -0.00196837 -0.00407722 -0.0222475 -0.0116122 -0.0120933 -0.0156106 0.032366 0.0131884 0.0171581 0.00723837 -0.0086869 -0.0227769 0.00900582 0.00696069 -0.010784 0.00897227 -0.00424583 -0.0267497 -0.0107469 0.0242885 -0.0226993 0.0244284
ὑπό -0.122682 0.117817 -0.207204 0.0782772 -0.0275831 0.207002 -0.175791 0.201093 0.198044 0.0185924 0.0259136 -0.00745301 -0.257146 -0.215523 -0.0286991 -0.0480541 -0.0876084 0.0783324 -0.0308183 0.138871 -0.0697684 -0.0689996 -0.0107011 0.085263 -0.0494779 0.122589 0.0288067 -0.117123 -0.0199209 -0.0214975 -0.0505731 0.0752327 -0.107603 0.0531176 -0.100497 0.0320041 0.0667206 0.0500418 -0.0219175 0.0288787 -0.0593458 -0.0115551 -0.00300582 0.03759 -0.0201576 0.0280016 0.0626721 0.0198067 0.0190328 0.0517626 0.0333062 0.0428731 -0.0110355 -0.0127874 0.0216816 -0.0108369 0.00226368 -0.0360318 0.00666632 0.0106368 0.0219189 0.0104862 -0.0250036 -0.00963081 0.0260319 0.0426283 -0.0420013 -0.0223028 -0.049938 -0.0482191 0.0289494 -0.0290646 0.00854947 -0.00684338 0.00546961 0.0105291 0.0204815 -0.000494598 -0.0190109 0.0249556 -0.0103405 -0.00522346 -0.0305842 -0.00892031 -0.00768484 0.0201567 -0.0115504 0.0101871 0.00704975 -0.0228066 -0.00109373 0.0179361 0.00976105 0.0205881 -0.0591504 0.00171896 -0.0251215 0.0292349 -0.00330984 0.0119933
βάλλω -0.279238 0.0963217 -0.296409 -0.0305679 -0.0223533 0.0501989 -0.321911 -0.279721 -0.274789 0.0782546 -0.0841594 -0.0447603 -0.0112715 0.0181279 0.13029 0.107062 -0.0812521 -0.00790493 0.173919 -0.102113 0.0374823 0.0182421 -0.0191878 0.0366486 -0.0808379 0.00388188 0.115913 -0.0861559 0.0790036 0.00303676 0.0170816 -0.0243247 -0.0179872 0.0107901 -0.0400444 -0.029936 -0.0562268 0.0666332 0.0631665 0.0182164 0.0174354 0.0768061 0.0484096 0.0458294 0.0602609 -0.0391453 -0.00161369 0.0381275 0.0482054 -0.0401788 -0.0215695 0.0211546 0.0249514 0.0153014 -0.0044762 0.00461292 -0.0295513 -0.00096664 0.0159541 -0.0275521 -0.0234875 -0.00799864 -0.0528293 0.0307999 -0.0297518 0.0212441 0.00931824 0.00683181 0.00582167 0.0128803 -0.0198171 0.00353412 -0.0379991 0.0264979 -0.0065612 0.00415413 -0.000459464 -0.0124897 0.00481408 -0.015326 -0.0165613 0.0134965 -0.0192581 0.0195906 0.00331898 0.0113852 0.0100602 0.000383456 0.0127689 -0.0120073 0.0339531 -0.0189362 0.0312785 0.0251607 -0.00791496 -0.0103288 0.0209564 -0.00550638 0.0100845 0.0210459
ὅδε 0.445684 0.20556 0.193025 -0.00760304 -0.0840934 -0.0816766 -0.00520648 0.0111956 -0.0343542 0.0413463 -0.0792843 -0.106026 -0.159253 0.00648627 0.0127019 -0.181708 -0.116873 -0.101245 -0.0847184 0.00810996 -0.00456954 0.0948396 0.14674 0.103509 0.118289 0.0277315 0.0423541 0.0383098 0.0735397 0.0463161 0.0174039 -0.0174947 0.0837329 0.0725403 -0.0671937 0.0164028 -0.0270343 0.0195938 -0.0529452 0.0270988 0.0446073 0.0120292 -0.0332756 0.00391575 0.0268798 -0.043102 -0.0652928 -0.0895998 0.00238446 0.0112969 -0.0454671 0.0180275 -0.0276382 0.0600765 -0.00641127 -0.0551585 -0.0116263 -0.0373408 -0.0225844 -0.0296531 0.00391995 -0.0398202 0.0555615 -0.0766084 -0.00222155 -0.00802551 0.000313486 -0.035155 0.0702372 -0.00181035 0.0264256 -0.00526666 -0.0165201 0.0198102 -0.00704876 -0.00517532 -0.0301723 0.0359968 -0.000303848 0.016986 -0.0111568 0.00237683 0.0194495 0.0171277 0.0280661 -0.00919414 0.0226224 0.00660969 -0.00436657 0.0179193 -0.00877219 0.00494103 -0.00604127 0.000732426 0.00244011 0.0252772 -0.0139303 0.0070526 0.0306147 0.00173735
ἵππος -0.201338 -0.079359 0.0737547 0.0523765 0.145088 -0.0774339 0.12597 -0.198001 -0.26972 0.00342561 -0.118931 -0.203879 -0.0732598 -0.177782 -0.0801654 0.0175597 0.0382254 -0.0331114 -0.0465511 0.0813605 -0.0983037 -0.106451 -0.0511704 0.139943 0.117587 0.0159117 0.0882173 0.0371745 -0.0180502 -0.0125831 0.000606771 0.028513 -0.0610854 -0.089283 -0.0490947 -0.082461 -0.040865 -0.0805514 -0.0754697 -0.0423261 -0.0625692 -0.198239 -0.0965929 -0.0630787 -0.0226049 0.107434 0.0263101 0.0304097 -0.0208915 0.0845808 0.026443 0.0493823 -0.0228882 0.0237051 0.0236241 0.00874138 0.00961612 0.0127812 -0.0283055 -0.0445245 -0.0172152 -0.00699611 0.0119331 -0.0575571 -0.0246429 0.031271 -0.00774677 -0.0402877 0.0123761 0.0142307 0.012976 0.0116304 0.0270303 0.0174821 -0.00348421 0.0338946 0.00423019 -0.00332569 -0.000922221 0.020721 -0.0375502 -0.0280819 -0.00441127 0.0155591 -0.015367 0.0185804 -0.0202563 0.00603747 -0.0194726 -0.0314665 -0.0182536 0.00478584 -0.0187419 0.0274 -0.0072585 0.0060203 -0.0213589 0.0283402 0.00950549 0.00950119
ἵστημι -0.201892 -0.00645094 -0.0996064 0.120313 0.00148313 -0.120641 -0.0423393 -0.127639 -0.185615 0.202586 -0.10559 -0.123204 -0.119191 0.186118 0.0643195 0.0778303 0.00479132 -0.0931366 0.147738 -0.187389 -0.152433 0.0994148 0.0620416 0.211548 -0.0573737 -0.0619598 0.000950328 0.127043 0.0128657 -0.168627 0.0266559 0.0374222 0.0312562 0.0869182 0.0229791 0.0172884 -0.00707685 0.0149162 0.0851683 -0.00755305 0.0156408 -0.0576336 0.100591 -0.00115112 0.0189613 -0.0167489 -0.06714 0.0353366 0.0390679 -0.049609 -0.000810656 0.0485997 0.0565965 -0.00720952 0.0031453 -0.0340871 0.010676 0.0275875 -0.024798 -0.0288881 -0.0377055 0.0136695 0.00265231 0.0303727 0.0326823 -0.0493805 -0.0206223 -0.0138617 0.0177661 0.0156077 -0.00629711 -0.0046547 -0.0227225 0.0202128 -0.00809273 0.0136594 -0.0114819 0.00119383 -0.0074507 -0.0045929 0.0068603 0.00938539 0.0428796 0.00160011 0.0222161 -0.0103352 0.0188739 -0.0143343 0.00792511 0.0219897 0.0366364 -0.0379558 -0.00102725 0.0294271 0.0024365 0.0106749 0.0114407 -0.00104661 -0.000275759 -0.0127485
ὅτε 0.0771435 0.11929 0.110481 0.240015 -0.088178 -0.0550557 -0.0629236 0.173445 0.0208265 0.0944189 0.0274387 0.000524842 -0.229248 -0.00721841 -0.0198703 0.179901 -0.247905 -0.0638241 -0.177511 -0.232466 0.019677 -0.111812 0.0524609 0.168204 0.11419 0.0399513 0.11957 -0.0934478 -0.0590542 0.0427368 0.0181714 0.0826272 -0.036831 -0.13061 0.0503538 0.0714894 -0.0615606 -0.00230296 -0.0633071 -0.0454976 0.0269581 0.0756169 -0.0652755 0.0463081 -0.0273745 0.0318156 0.0460916 -0.00762998 0.0494554 0.0288001 0.000429159 -0.00793123 0.0102125 0.00813555 -0.0296778 0.0205277 0.00466852 0.00460055 0.0395173 -0.00125852 -0.0113587 0.0281303 -0.0249878 0.0208508 -0.00249603 0.0212808 0.00996807 0.0151071 0.0216758 0.000333288 -0.0125665 -0.0104279 -0.00602047 0.0248216 -0.0306051 -0.00737642 0.00933093 0.00309543 0.0103704 -0.0285033 -0.00866773 0.0090537 0.00463552 -0.00947486 0.020424 -0.00731553 -0.00741822 -0.00746015 0.00983388 0.0153023 -0.00783643 0.0267499 -0.0128616 -0.00418476 -0.0452853 -0.0299633 0.00212718 0.00448052 0.00169942 0.0174128
ἔπος 0.215533 -0.184948 -0.145499 -0.180756 0.0291128 -0.260857 -0.0224883 0.0323347 -0.106075 0.0770889 0.0589074 -0.0980815 -0.0618786 -0.140095 0.141036 0.233019 0.00941471 -0.177337 -0.0474145 0.1558 -0.0129602 -0.091621 0.00691997 -0.0856885 -0.0152944 0.073481 0.148273 -0.0971308 0.00148899 -0.0381013 0.063728 -0.131257 -0.0703689 0.0428256 -0.0661365 -0.0449511 -0.0833755 -0.0287392 0.00896936 -0.00356733 -0.0675263 0.00472999 -0.110802 0.00234334 -0.0176622 -0.00764512 0.00936056 0.00329493 0.0073033 -0.001166 -0.00269801 -0.024234 0.0342143 -0.00925718 -0.00979195 0.00470529 0.0465209 -0.0251586 0.076863 0.0106301 0.0225075 0.0042597 7.7951e-05 -0.0180607 0.0383906 -0.00830162 -0.0288159 0.0139396 0.0217913 -0.0359698 0.0190044 0.0412943 0.010822 -0.0296348 0.00609475 0.0480999 0.0125653 -0.0507028 -0.00857311 -0.00330749 -0.0374541 -0.0127276 0.00394591 0.0210108 -0.00605547 0.00579577 0.0175989 -0.0333267 -0.0199128 -0.0283473 0.00745287 0.00251069 0.0105963 -0.0039008 -0.0297388 0.00290485 -0.00765591 0.023348 -0.0274792 0.00289903
Ἕκτωρ 0.0617307 -0.176053 -0.134798 0.214397 0.309017 -0.120236 -0.0966483 -0.0716222 0.0412112 -0.191061 -0.052404 0.026005 -0.188216 -0.0638852 -0.187587 -0.0934211 -0.258279 -0.106588 0.12662 -0.014644 -0.173199 0.0491503 -0.138286 0.0203247 0.0375206 -0.0415494 -0.0991342 0.0785883 -0.056781 -0.000241678 0.0223523 -0.0601029 -0.0359321 0.00188536 -0.0349362 0.0919748 0.105729 0.0618786 0.0297524 -0.10143 -0.0310513 -0.0216087 -0.0122392 -0.00964763 0.00772624 -0.00297585 0.00059328 0.0176272 -0.0148021 0.0284219 0.0456372 -0.00587061 0.0189943 0.0253934 -0.00486939 -0.0302009 0.0241604 0.0160461 -0.00618583 -0.0206352 0.0194651 -0.0003972 0.020783 -0.0075532 0.00618508 -0.0208686 -0.0222195 -0.0152675 0.0412178 0.00303526 -0.00232743 -0.00872944 0.00651582 0.0135279 -0.0141904 0.00714595 0.0157111 -0.00384887 0.00572935 0.0420739 0.0309589 -0.0111264 0.0341132 0.00875227 0.00792024 0.00183621 0.0334987 0.000809822 -0.0344852 0.0192236 -0.0125814 -0.0169461 -0.00232155 0.0184415 -0.0109062 0.00984325 0.0254562 0.0228661 0.0197472 0.0118308
εἶδον 0.167754 -0.0462259 -0.0121159 0.157509 -0.20075 -0.0294286 -0.0982666 0.0250619 -0.317193 0.16927 -0.0948521 0.16409 -0.124462 -0.0540899 0.00164252 -0.0300291 -0.0618823 0.0754475 0.0148604 0.0333616 -0.0579258 -0.00494789 0.0632413 -0.0293099 0.0618988 -0.114277 0.0708186 0.0486076 0.0067868 -0.0403257 0.0549803 -0.0206136 -0.0546207 -0.125515 0.0827708 -0.0777865 0.0895058 0.00227249 0.107191 0.0661741 -0.0248306 -0.00444267 -0.123295 -0.111564 -0.024226 -0.0655747 -0.0218194 -0.0794427 -0.117562 -0.0148112 -0.0167402 0.0249546 0.0268696 -0.00230917 0.0571976 0.00546275 -0.0437536 -0.0298336 -0.0230886 -0.00806038 0.0228746 0.0117221 0.0259572 -0.00774021 0.00092208 -0.0616845 -0.0192566 -0.0306773 0.00471651 0.0159885 0.0468221 0.0172037 -0.00631274 -0.0240685 -0.035651 0.0133112 0.029936 0.00582727 0.0312715 0.0247053 0.000986701 -0.0137475 -0.0241427 0.0123765 -0.0319502 -0.0106028 0.0266707 0.0047267 -0.0308023 -0.0187702 -0.00307326 -0.0156613 0.0022834 0.0161917 0.0174974 0.0235629 -0.0035811 0.0145246 0.0309954 -0.0229524
κακός 0.439902 0.282537 0.0137054 -0.059737 0.136678 0.0027175 0.042226 -0.0691463 0.187304 -0.0171995 -0.0102756 0.0894232 -0.102073 -0.00549811 0.0308931 -0.135859 -0.121366 -0.0903306 0.0989259 -0.0325119 0.0596369 -0.074782 0.0296212 -0.0501694 0.103025 -0.00112673 0.00401935 0.0958835 0.0601098 0.0442723 0.156055 -0.0309853 -0.0330259 -0.052343 0.0883935 0.0029472 0.0117097 -0.0232951 -0.0292226 -0.0409639 -0.0478212 -0.00935007 -0.0756385 0.0817205 0.0330406 -0.00605965 -0.0211126 -0.050286 0.0701388 0.0558188 0.106466 0.0083561 0.0225366 0.00405824 -0.00737068 0.00384638 0.0311396 -0.000471466 -0.0189698 -0.010698 0.0125567 -0.0961506 -0.0334363 -0.0051491 -0.0525617 -0.0131256 0.0133552 -0.0213599 -0.0390143 -0.0297687 0.0183598 0.00254523 -0.0151669 0.00641227 -0.00864721 -0.0122475 0.00438123 -0.0166027 -0.00597773 -0.04107 -0.0169126 0.00805631 -0.00811738 -0.0236454 0.0255455 -0.0155271 0.0190125 -0.0104591 -0.0109363 0.00693323 -0.00728609 0.0168245 0.0219063 -0.0104453 -0.00773617 0.00989748 0.0147114 -0.0311954 0.0197578 -0.0205784
ἑταῖρος 0.055048 0.0360383 0.0877238 0.165154 -0.0204253 -0.198441 -0.0944072 -0.29675 0.165992 -0.101463 0.0287457 -0.0188579 0.01301 -0.177939 0.0770999 -0.0385115 -0.129302 -0.0382115 0.0356717 0.0402664 -0.055858 -0.126493 -0.238204 0.0360807 0.0761472 0.0481525 -0.10721 0.1553 0.0185463 -0.0386834 -0.0395523 -0.112902 0.00248728 -0.0366762 -0.0581572 -0.0563684 0.0126651 -0.0324751 0.00260819 -0.0515385 0.00164695 -0.0133712 0.0297816 0.00682456 -0.0192723 0.0250718 -0.0289594 -0.00251081 0.138846 -0.0481787 0.0310239 -0.016128 -0.0640717 0.0145274 0.0142792 -0.0382356 -0.00166363 -0.0158709 0.0271812 -0.0405718 -0.00750487 -0.0068138 -0.000141664 -0.0369606 -0.0342644 -0.00300592 -0.00466256 0.0478552 -0.0262171 0.0027681 0.0144991 0.00138696 -0.0126272 0.00884 0.015233 -0.0117281 0.065526 -0.00837912 0.00854122 0.0313297 -0.00641535 0.00780231 0.0220831 0.0375634 -0.0104881 -0.00687964 -3.49187e-05 -0.000310244 0.0302881 0.000198413 -0.0234287 0.00925844 0.0150058 0.0180616 0.0248856 0.0309504 0.0229449 -0.00379617 -0.00832123 -0.0155123
; 0.32968 0.117078 0.176374 0.06683 0.183447 0.107753 -0.259599 0.107289 0.156539 0.135591 0.197744 -0.30989 -0.13268 -0.0956626 0.180242 -0.0885549 -0.073404 -0.0326567 0.0624852 -0.11296 0.105195 0.00124295 -0.0649119 0.0780043 0.0387125 0.065149 -0.0358831 0.0595834 -0.0130183 0.045217 -0.0143109 0.0659552 -0.0496031 -7.08587e-05 0.00587373 0.0136774 -0.00913913 -0.0293986 0.0179106 0.00869408 0.0444587 -0.00508792 0.00795955 0.0878755 -0.0418861 0.00394468 -0.00551174 -0.0237495 -0.019011 -0.0258079 -0.0423235 0.0335518 0.00122618 -0.00178844 -0.0853537 -0.0117997 -0.0631846 0.0224653 0.0110345 -0.0140647 0.0477902 -0.000110069 -0.0061478 -0.013673 -0.0148712 0.00695498 -0.0309467 -0.00457878 0.0268707 -8.70356e-05 -0.00998187 -0.000605829 -0.0174866 -0.00991163 -0.00123691 -0.0059597 0.0106521 0.0221961 0.0270874 -0.0137144 0.00592392 0.00769009 0.00465568 -0.0077168 0.0145463 0.00845325 0.0125392 -0.00443762 0.0145975 0.0127933 0.00270902 0.0192704 0.00204536 0.00479288 -0.0175439 0.0152644 -0.0251508 0.00148836 -0.00146382 0.00481676
ἦ 0.403842 0.0216175 0.117186 -0.0094892 -0.0995497 -0.108889 -0.0669268 -0.0686105 -0.0326461 -0.0282098 -0.235733 0.00788392 -0.171547 0.058423 0.195569 0.0183918 0.0813559 -0.175625 -0.113019 -0.0886767 -0.0114832 0.0493655 0.0896833 0.0947176 0.0154312 0.0544614 -0.0558371 0.0249551 -0.097783 -0.0622117 0.108853 -0.0421959 -0.133727 0.100086 0.100278 0.0381354 0.105091 -0.00200839 0.0107308 -0.0692567 -0.0292426 -0.0320387 -0.0780027 0.0522492 0.032694 -0.0211614 0.0553093 -0.00285005 0.0501059 0.037206 0.0722165 -0.00075176 -0.013539 -0.0157805 -0.0193774 0.0488274 0.020547 0.0188492 -0.0589191 0.0217433 -0.0131484 -0.0122407 0.00393012 -0.0254517 0.032628 0.0175201 0.00878563 -0.0262766 -0.014202 0.00685255 -0.0190864 0.0185314 0.010163 0.00441688 -0.0331899 0.00901623 -0.00208863 -0.0328641 -0.0279794 0.00655843 0.00391064 0.0142686 0.0254873 0.013564 0.0109694 -0.00978106 0.00417858 7.11139e-05 -0.0150025 -0.0265362 0.00310327 0.007122 -0.0041432 0.00599787 -0.00278791 0.00360351 0.00710186 -0.0238366 0.0211096 -0.0195714
αἱρέω -0.15621 0.0768566 -0.263625 0.125993 -0.341228 0.162853 -0.194639 -0.153356 -0.107415 -0.166777 0.137297 -0.0186476 -0.0885861 -0.20417 -0.00281395 0.105313 -0.091633 0.037165 0.0823548 -0.00525154 -0.0506919 -0.00609539 0.0348686 0.0618053 -0.028971 0.0189068 0.176786 -0.221041 0.0293565 -0.0168045 0.0556068 -0.0359291 -0.102342 0.0300703 -0.0475994 -0.109846 -0.0665917 0.0456898 0.00331139 0.0345268 0.00272543 0.0642569 -0.00375522 -0.0189744 0.0145497 0.00306393 0.0629828 0.00445217 0.0110511 -0.00952508 0.00333117 0.00304916 0.0184964 -0.0106329 0.00134666 0.00577233 -0.00841174 0.0320281 0.0146059 0.00759444 -0.0504231 0.00846274 0.0189215 -0.0427748 0.0285755 0.0306705 0.000115084 -0.0361459 -0.0228023 -0.0138134 0.0199724 0.00693256 0.0232872 0.028547 -0.022339 0.00385944 -0.0188492 0.00569729 0.00961265 0.0147432 -0.0171356 -0.00969175 -0.018676 0.0220455 -0.00259876 0.00511798 -0.0128408 -0.00318872 -0.0141467 -0.0194228 -0.0144975 0.001898 0.0233709 0.0205109 -0.0239797 -0.0275829 -0.00445943 0.0083703 -0.00244431 0.0481925
μετά 0.238683 -0.0363817 -0.0510275 0.145642 -0.0462847 0.188604 0.0375194 0.0130459 0.148036 0.187279 0.0215255 -0.23607 -0.165885 0.0410882 0.029901 -0.11111 -0.124296 0.0820165 0.0896163 0.273098 0.0261962 0.00251885 0.0258598 0.00413035 0.109778 -0.0245775 0.0807712 0.00109841 0.032409 0.0115229 0.0336785 0.0314438 -0.135317 -0.0238577 -0.0486468 -0.000722613 -0.0406268 0.0979025 0.0120946 0.0894382 -0.0694159 -0.0352536 0.0266019 0.0571143 -0.0175952 -0.0115856 -0.0134803 0.00927721 0.0413176 0.00914789 -0.00422864 0.00423811 -0.0034574 -0.0864977 -0.0186902 0.0226247 -0.0544653 -0.0153487 0.0222229 0.00674985 -0.0248005 -0.0978719 -0.0385987 0.00821017 0.0203365 0.0133885 -0.0188078 0.00838716 0.00325553 0.00234244 0.0227544 -0.0119194 0.0222677 -0.000623551 0.016054 -0.00483923 0.0491942 0.000334878 -0.0291249 -0.0314348 -0.0155658 0.00871987 -0.0195363 -0.0121643 -0.0126968 -0.0206287 0.0188334 -0.00687511 0.0325723 -0.0164657 0.00698733 0.00911955 0.0230878 0.0380541 -0.0399769 0.00345034 -0.0397882 0.00977655 -0.0301066 0.0208015
βαίνω -0.188079 -0.0806373 0.0776012 0.322028 -0.160689 -0.258836 -0.0558659 -0.111011 -0.0991833 0.113459 0.149214 -0.065494 -0.108763 0.0292377 -0.0396378 -0.130059 0.125465 -0.0499044 0.124603 -0.089823 0.0341606 0.0972476 -0.0562919 0.0583805 0.0603162 0.0513094 -0.0214315 0.0421807 0.0190387 0.0207699 0.140003 -0.00344646 -0.0504969 0.124595 -0.0102205 0.017947 0.0596152 -0.103176 0.0327339 -0.0778912 -0.0727086 0.0113085 0.0292225 0.0190335 -0.0465326 0.110421 -0.0324738 0.0864964 0.0793035 -0.0295772 -0.0221467 -0.0356368 0.0161038 0.0340103 -0.033511 -0.0190911 0.00346075 0.0244413 -0.053208 -0.00803867 -0.00624401 -0.00943441 -0.0267986 -0.0044016 0.0035552 -0.0174405 -0.00840309 -0.0119782 -0.0475291 -0.00433911 0.020276 0.0276328 -0.00903841 0.0156634 -0.0119766 0.00890219 0.00778532 0.0225953 -0.00602606 0.00594272 0.0158879 0.0365715 -0.00937244 0.00577145 0.0171411 -0.0193386 0.00584475 0.00710647 -0.00802182 -0.0121488 -0.00241876 -0.0297891 -0.00878143 0.0351497 0.00997833 0.00717348 0.0150044 0.0304308 -0.00312925 -0.0317746
δῖος -0.0202484 -0.225212 0.150429 0.20555 -0.0448175 -0.218862 -0.0283315 -0.0886196 -0.0488768 0.0379601 0.0874947 -0.119715 -0.213438 0.166121 0.099449 0.0606772 0.113167 0.142852 -0.239392 0.0603238 -0.177785 -0.0707515 0.152469 -0.127568 -0.0178869 0.0635174 0.138629 0.0885895 0.0280664 -0.0497644 -0.00620313 -0.130389 -0.00473803 0.0170303 0.0515651 -0.0377732 0.0473593 -0.062604 0.0424631 0.0343508 0.0352218 -0.0190438 0.00508062 -0.0264208 0.031324 0.00642608 -0.0310452 -0.0132381 0.0358566 0.0101706 0.00476699 0.0427082 -0.000226666 -0.0560749 0.0247595 -0.0370522 -0.00581706 -0.0215416 0.0190709 0.0262589 0.0188747 -0.0134462 -0.0143373 0.00850315 0.0282946 0.0107194 -0.0136717 -0.0104922 0.0308962 0.0111973 0.00899351 0.0121064 0.0171291 0.00643541 0.0208923 -0.00876238 -0.00418011 -0.00409028 0.00306109 0.0431625 -0.00772584 -0.0269757 0.00869931 0.0064706 -0.0223953 -0.00252738 -0.00182789 -0.026851 -0.0361287 -0.0221233 0.0130666 -0.0154211 0.0330515 0.025733 -0.0291317 0.0204874 -0.0285475 -0.0014478 -0.0303951 -0.00335712
περί 0.00994768 0.0793533 -0.153917 -0.171867 -0.172984 0.39087 -0.065182 0.0142043 0.150823 0.0753378 -0.180067 0.0389372 -0.247716 -0.0522374 0.0177392 -0.274616 -0.059008 0.00284932 0.0182311 -0.0918214 0.0448768 -0.121921 0.064344 -0.0572021 0.037618 0.0709047 -0.0889225 0.0102948 0.0856013 -0.053611 -0.0126321 -0.0607083 0.043297 -0.119142 -0.0178793 -0.0371266 0.00525053 -0.1535 -0.076819 -0.0039174 0.018369 0.00703301 -0.0122379 -0.0112378 -0.0239466 0.0183177 -0.0260853 0.044705 0.033286 0.0165877 -0.0187701 -0.0179883 -0.0283383 0.0530647 -0.00813545 -0.0373595 -0.0143822 0.00502799 -0.0212532 -0.00478837 0.0401453 -0.0542726 -0.0315229 -0.0207975 -0.0108665 0.000791486 0.020345 0.00365444 0.00930402 -0.0199184 0.00487202 -0.0209496 -0.019749 0.00469724 -0.0300262 -0.0100482 0.0197441 0.00861929 -0.00547462 -0.00758531 -0.0119844 -0.00835623 -0.0042788 0.00349021 0.0328258 0.0142745 0.0107737 0.0341933 0.0201887 0.0270844 -0.0016899 0.0285253 -0.00654778 0.00849737 -0.0226235 0.00595933 -0.0209772 0.0139398 -0.00648858 -0.0364798
Ἀχιλλεύς 0.0695536 -0.17241 -0.046362 0.130295 0.116536 -0.065624 -0.174251 -0.117986 0.0606206 -0.222533 -0.0308814 -0.0844736 -0.120819 -0.214063 -0.258891 0.0718833 -0.259819 0.00849998 0.201875 0.0132247 -0.04914 -0.0494882 -0.118544 0.0772448 0.0869727 0.010825 -0.0136009 0.11954 -0.0832695 -0.0811806 -0.0581157 0.039258 0.0123799 0.0509141 -0.0210646 0.0379036 -0.0258969 0.07118 -0.0100252 -0.0618014 -0.0438687 -0.0225317 0.00851797 -0.0817701 0.00304998 0.0812231 0.0225461 -0.00853521 -0.0274309 0.0234299 0.0249321 0.0159118 0.0439433 0.0287156 -0.00232301 -0.0360272 0.0076776 0.0437601 0.0158538 0.00400489 0.0145076 -0.0281449 0.010236 0.0258745 -0.00115352 0.0276659 -0.0222524 -0.0210569 -0.00977887 0.0136011 0.000696116 -0.0217389 0.000162543 -0.0394196 -0.000556877 0.00742211 0.00614156 -0.0144124 0.0080622 -0.00565495 0.00262809 -0.0222314 0.0250187 0.00098974 0.00826237 0.0138286 -0.00439769 0.0152751 -0.00152583 0.0098061 -0.0371471 -0.0189614 0.00245044 0.0380084 -0.0282201 0.0164608 -0.0100575 0.0136436 -0.00437707 0.0179321
τίθημι -0.106794 0.0427686 0.0673676 -0.161582 -0.394528 0.0671985 -0.0675795 -0.126529 -0.248513 -0.129618 0.245032 -0.0429993 -0.148223 0.102614 0.0822763 0.0458777 0.0647398 -0.0194478 0.212737 -0.0625673 -0.0667514 0.074426 0.0580165 0.0438368 -0.116452 0.0661403 0.0675334 -0.120871 0.0232577 -0.0887999 0.0155887 0.0418001 0.07567 0.0318593 -0.0549194 0.00938781 -0.0399587 0.0448335 0.0736801 0.0303871 -0.0308815 0.0568829 0.0242855 -0.0289711 0.0395524 -0.0302589 -0.0251409 -0.0609447 0.023513 -0.00976431 -0.0223709 -0.00701285 -0.00164413 0.00443724 -0.0743547 -0.0147757 -0.0249821 0.059566 -0.010856 0.0156398 0.00117166 0.010283 -0.0170968 0.00602969 0.0356965 -0.0109392 -0.0223782 -0.0114509 0.00104701 0.0132917 0.0463624 -0.0168545 0.00130807 0.0255159 0.00696329 -0.0178157 -0.0380982 -0.0151256 -0.0113658 0.0214724 0.0110935 -0.0103099 -0.00252178 -0.0175276 0.0189048 0.0127399 0.00509593 -0.0213045 0.0022105 0.0151113 -0.00249181 -0.0150472 0.00121013 0.0140729 -0.0207938 -0.0188815 0.00166424 -0.0117959 0.00691726 0.00778651
πρός -0.0534245 -0.0644452 -0.131196 0.16837 -0.223195 0.0662558 -0.0726421 0.289832 0.0453527 0.121979 -0.0335088 -0.242924 -0.067383 0.0244204 0.0316141 -0.221459 -0.128134 -0.182901 0.0180219 -0.00324223 -0.0103535 -0.142285 -0.0570843 -0.141165 -0.0524902 0.0263535 -0.0422726 -0.114273 -0.00496165 0.0525301 0.0683601 -0.0756754 -0.00576422 0.0478347 0.0611312 0.0574647 0.124634 0.00243996 -0.0814208 -0.035477 0.00938904 0.0438428 -0.033209 -0.0758611 0.00970577 0.0253709 -0.0510732 -0.0172341 0.0532257 0.0294677 0.0105252 0.0398093 0.00221861 0.0477437 -0.0584045 0.033171 0.00306217 -0.0269793 0.0157442 0.0430495 0.0369378 -0.0303325 0.0153318 -0.00870128 0.0256669 0.0174883 -0.0155144 -0.0114962 0.0158559 0.00604893 0.0269649 -0.00871959 0.0229339 -0.00689689 -0.004533 -0.024342 0.033208 0.00220626 0.00423525 -0.0130351 -0.0120762 0.00986045 -0.0121436 0.018816 0.00848617 -0.0191777 -0.00466555 0.00632224 0.0169925 0.0367334 -0.00701534 0.0095811 0.0304435 -0.00377767 -0.0398369 -0.00298073 0.0148854 -0.0154574 0.0179204 -0.00746363
φέρω -0.200157 0.0746512 -0.0440536 0.111411 -0.339556 0.101031 0.212041 0.0234399 -0.182416 -0.280426 0.210654 -0.109896 -0.0616296 -0.194552 0.229199 -0.0111181 -0.105597 0.0534224 0.12591 -0.0104346 0.00734846 -0.0304059 0.016148 0.165162 -0.00530562 -0.00906032 -0.000944541 0.0562302 -0.0705258 -0.0230242 -0.0103029 0.000611471 0.0514844 0.0827478 0.0210887 -0.0111254 -0.0319427 0.00566975 0.0252709 0.0360526 0.0302574 0.0376854 0.0770758 -0.0149146 -0.0280595 0.00431787 -0.0290066 -0.0249798 -0.00481775 0.0134093 -0.0466385 0.0588078 0.00562185 0.0260694 -0.0671913 0.0701248 0.0444528 0.0517924 0.00424562 -0.0449354 -0.00597748 -0.00729998 -0.0182141 0.0200362 -0.00551698 0.0165599 -0.0304021 0.0143159 -0.0368983 -0.0298924 -0.00111976 -0.0145345 0.0203468 -0.0168625 -0.015514 0.00645412 0.0167806 -0.0116431 0.0149342 0.0032899 -0.020679 0.00369025 0.024437 -0.00391439 0.0303316 -0.00752448 -0.0015812 -0.0197113 0.0067897 0.0162318 0.00645738 -0.0213713 0.00313223 0.00458601 -0.0109976 -0.01079 -0.0178731 -0.000369412 -0.016443 0.0276888
αὖτε 0.15974 -0.358521 0.00105999 0.234336 0.0333738 0.019286 0.0623224 -0.0399505 -0.0120936 0.0176178 -0.0118078 -0.0643973 -0.106888 0.0453073 0.141597 0.0240745 0.0541961 0.129653 0.0352507 -0.0986551 0.0153714 0.0453507 0.0226474 0.0470866 -0.100963 -0.00205871 0.0756886 -0.0874092 0.0834814 -0.0642793 -0.190596 -0.0410833 -0.0977103 -0.073951 -0.0555624 -0.185924 -0.0224778 0.0512413 -0.0684694 0.0116424 0.00818531 0.0407994 0.0683937 0.0316419 -0.0427621 0.10351 -0.0343836 -0.0346658 0.0109512 0.0148415 0.0142125 -0.0283517 0.0847504 -0.0576023 -0.0123976 -0.0175475 0.0358883 0.0724385 -0.0531544 -0.0403988 -0.017135 0.0200071 0.0539817 -0.0342958 0.0478941 0.0142657 -0.0279121 -0.0224293 0.0342013 -0.00881873 0.03006 0.0258512 0.0274714 -0.0123055 -0.00179987 7.55945e-05 0.0146334 0.0133616 0.051148 0.0153961 0.0166332 -0.0320977 -0.0192674 -0.000295722 -0.013356 0.0116822 -0.00149183 -0.0378545 -0.0352246 0.0281179 -0.00133164 -0.013733 -0.03145 0.0374964 0.00598229 -0.0274894 -0.0100639 0.0266436 -0.0159605 0.0122134
ἀμφί -0.264014 -0.0214762 -0.127858 -0.131543 -0.145971 0.35998 -0.040777 -0.103953 0.0635953 0.202764 -0.00767312 -0.0292163 -0.197278 0.0354231 0.0881122 -0.134462 -0.0115982 -0.0612301 -0.132339 -0.0832768 -0.122529 -0.113231 -0.0698404 -0.0853725 -0.0195478 0.0545789 -0.154498 0.0586951 0.00753422 -0.159236 0.0406506 -0.110814 0.0113638 -0.00746693 -0.048427 0.000281551 -0.00239898 -0.0171965 0.0210395 -0.00282087 -0.0525434 -0.0676614 0.0927671 -0.046803 -0.036112 -0.00412604 -0.0705703 0.0383506 0.0703719 0.0216862 0.0202944 -0.0231164 -0.00263771 -0.0103465 -0.0295747 -0.0341616 -0.0171562 -0.0229353 0.0075485 0.0165235 0.0312389 -0.0234258 0.00376599 -0.0258631 0.0293319 -0.00557538 -0.0401241 -0.020849 0.0247409 0.00255782 0.00259305 0.00927201 -0.0022213 -0.0256871 -0.0113362 0.00141863 0.0327427 0.0243213 0.0112622 0.00555713 -0.0209359 -0.00303462 0.0077213 0.0171569 -0.00302226 0.000831462 0.030371 0.00924495 -0.0074094 -0.00254706 -0.00370139 0.0187642 -0.00829622 0.0283981 -0.0297734 0.0229515 -0.00778728 -0.00688402 -0.00982585 -0.0256777
πατήρ 0.282728 -0.195385 0.322642 -0.0233143 -0.100446 -0.134303 -0.371589 0.0479429 -0.167229 -0.0259808 -0.14292 -0.0416351 -0.0640622 -0.0839196 -0.0241132 -0.01738 0.0424617 0.0735573 0.0676227 0.0457875 -0.0412615 -0.176893 -0.212465 0.0162307 -0.078487 0.000237697 -0.025143 -0.11089 0.0132351 0.0876664 -0.0385759 -0.00622371 -0.0138894 0.0567025 0.024669 -0.00697656 0.00577223 0.0692344 -0.0343145 0.00629209 0.0373738 -0.0323059 -0.034235 -0.0431133 -0.0496125 0.016384 0.0205031 0.0165283 0.0408446 -0.014726 -0.062589 -0.0410792 -0.00177789 0.00998839 0.00403281 0.0130443 -0.00357466 -0.00177018 -0.0137835 6.55884e-05 0.0120529 0.0187664 -0.025407 0.0139782 0.017403 0.0251986 -0.019085 -0.00954296 0.0155878 0.042641 0.00603237 0.00950182 0.00756452 -0.00858274 -0.0154554 -0.0396536 0.013375 -0.00123331 -0.00363403 0.0213135 -0.000727003 0.0181316 -0.0122668 0.0128909 -0.0189371 0.002987 0.00626735 -0.0150037 -0.00147081 -0.0101793 -0.00282375 0.00742164 0.0111193 0.00990179 -0.0128074 0.0113312 0.0097413 0.0269432 0.0222419 -0.0130468
ὄφρα 0.0750321 0.0832637 0.0506703 0.0172916 -0.186521 -0.140387 -0.0982949 -0.0177274 0.0308519 0.05983 0.148796 -0.377982 -0.0882511 -0.125265 -0.0756933 0.0542089 0.00528598 -0.204577 -0.0380069 0.0514415 0.142719 -0.0496444 -0.0035402 0.00884856 0.0707994 0.131317 -0.0142989 -0.0193458 -0.0894333 -0.131587 -0.0757334 0.0120911 -0.038702 0.0240867 -0.0387558 0.101949 0.0853269 0.0364579 -0.0608223 -0.0425941 0.0816412 0.0726538 0.016519 -0.0290619 0.0838391 0.0720828 0.0364599 -0.00046023 -0.0101961 0.00389729 -0.106655 0.0181892 -0.0121584 -0.0210405 -0.0538785 0.0472815 -0.0181531 0.0291871 0.0162966 -0.03296 0.0481542 -0.0125071 0.00625187 -0.00521846 -0.0171101 0.00289499 0.00353794 0.00959575 0.0239884 -0.0170351 0.00785009 -0.0300044 0.0136221 0.0106679 0.0112643 -0.00916297 -0.0107718 0.0131286 0.0117357 -0.0273103 0.0143901 -0.030829 0.00926448 0.0296912 -0.0202369 0.0204147 -0.00916388 0.015474 0.0173556 -0.00506456 -0.0174493 -0.00359403 0.0023668 0.0247047 -0.0386804 -0.0115929 -0.0273346 0.00447764 -0.0101311 0.0119864
ἐμός 0.397193 0.0605778 -0.0196964 0.0150209 -0.220495 0.000738558 -0.377293 -0.127938 0.0253922 -0.0158818 0.0282674 0.0701254 -0.132191 -0.170322 -0.089595 0.0459393 0.0338395 -0.13712 0.0517102 0.0359549 0.0475805 -0.014301 0.104682 -0.0182469 0.0511067 -0.118215 0.0285868 0.0218966 0.019704 0.0758958 -0.00301281 0.031072 0.110892 0.0231576 -0.0110214 -0.0355031 0.0813958 0.040943 -0.0420066 -0.0227494 -0.0400412 0.122156 0.038211 0.0589149 0.0666617 -0.00438586 0.0181124 -0.105354 -0.00341059 -0.0411937 -0.00245579 0.0719257 -0.00962787 0.0118717 -0.0019967 -0.00648102 -0.0099337 0.0531553 0.010783 0.0146359 0.0168887 -0.0381035 -0.026866 0.0313517 -0.0316604 0.00137166 -0.0121053 0.00792603 0.00860531 -0.00886568 -0.000196802 -0.0415689 -0.0382389 0.00510972 0.0178186 0.00406126 -0.00361542 0.0212908 0.00668476 -0.0226875 0.00810367 0.00230452 0.00506225 -0.00702342 0.00473262 -0.0148391 0.000298169 0.0352527 0.0145182 0.0162698 0.00115683 -0.0319831 0.02549 -0.0177899 0.00841999 -0.0368416 -0.00516597 -0.00150667 0.00558683 0.00420224
οὗτος 0.491553 0.060067 0.0402562 -0.128702 0.00753446 -0.343354 -0.0436785 -0.116295 0.0151694 -0.0482594 0.0172072 -0.252341 -0.0762317 -0.0727441 0.0315714 -0.0367654 -0.110008 -0.0927716 -0.0117887 -0.0702302 -0.0813781 0.0481134 0.0015969 -0.0270628 0.0276082 0.0559801 -0.00409028 -0.0404245 0.0665938 -0.0709371 0.11267 0.0522251 0.0367851 0.060987 -0.0567852 0.0243057 0.00735919 -0.0770389 -0.0904305 0.0280479 -0.0172324 -0.00130502 -0.0251462 0.0356243 0.0241884 -0.0370954 0.0069116 -0.060418 0.0127187 0.00365212 -0.0234777 -0.0433452 -0.065897 0.0509118 0.0451445 0.00981186 0.00853346 -0.0395505 -0.0378069 -0.0156714 -0.0142519 -0.00962737 0.0112297 -0.0440022 -0.0264662 0.0224792 0.015607 -0.0342055 0.0228951 -0.0140299 -0.00510854 -0.0149279 0.00288259 0.0112514 -0.012615 0.0171298 -0.0183445 0.0241267 -0.00772571 0.00398122 -0.0238606 0.0414607 0.0204849 0.0225395 0.0252907 -0.0316498 0.0133982 0.00703586 0.0231755 -0.0182328 -0.00434521 0.0203838 0.0165203 0.00367528 -0.0112264 0.02386 -0.00891319 0.0042825 0.0382806 0.0226833
φρήν 0.277418 0.0309949 0.0835707 -0.305875 0.0948293 -0.401224 -0.242454 -0.183526 -0.0758872 0.109733 0.0375359 -0.0305679 -0.118635 0.130639 0.0759092 0.0835143 -0.0751841 0.00149824 0.0968142 0.0812665 0.104561 0.0540495 -0.0571047 0.022967 0.0598941 -0.0500081 0.00945292 0.0017817 0.0671035 0.0227966 0.0356194 -0.0429992 -0.046499 -0.160598 0.0251687 0.0253562 0.0105089 -0.00457133 -0.0235668 -0.0291651 -0.0596139 0.0219018 -0.0459466 0.0236959 0.060592 -0.0413963 0.0273975 -0.0208899 0.043985 -0.00404428 0.0278287 -0.00200146 0.0275401 -0.00809563 -0.0232159 -0.00486205 0.00757496 -0.0154704 0.0450244 0.0113783 -0.0188049 0.00522173 0.00224102 0.0195874 -0.00836754 0.0293136 -0.00486925 0.00978859 0.00500769 0.0213705 0.00538779 0.0017591 -0.0046302 0.0103947 0.0118608 -0.0040531 0.0074755 -0.0333774 -0.0100492 0.00642483 0.00158053 0.00784144 -0.0330514 0.00311126 0.0178095 0.00948073 -0.00101071 -0.0136092 -0.00425839 -0.0151966 -0.00192632 0.00317056 -0.00655418 0.00997744 0.00351967 0.000161942 0.0455398 -0.000933393 0.00222436 0.0116438
ἔτι 0.407599 0.261103 0.0122539 0.0966744 0.0308527 -0.0296868 -0.25359 -0.0698832 -0.0222001 0.155103 -0.214221 0.0191713 -0.0443876 -0.121834 -0.0771006 0.00957446 0.0950805 -0.120433 0.185732 0.00104936 -0.0884022 -0.0585847 -0.0447292 0.087091 -0.00907873 -0.049373 0.010012 0.0609275 -0.0673436 0.0779426 -0.011879 -0.0711055 0.00366842 0.0255186 0.0216535 -0.00875543 0.00431542 0.173455 -0.0833017 0.036238 -0.0207226 -0.00243017 0.0312525 -0.027767 0.0289316 -0.0378052 -0.0553991 0.0238924 -0.0387901 0.0624673 0.0326949 -0.000958336 0.0892053 -0.0633493 0.0581201 0.0352455 -0.0121389 -0.00749467 0.00362246 -0.000982038 0.0366824 -0.0026497 0.032841 -0.0238726 0.0227614 0.0153945 -0.0143319 -0.01922 0.00405596 0.0241991 -0.0161584 0.000792792 -0.0128578 -0.00696666 0.0175903 0.0144107 -0.016226 -0.00167053 -0.00763756 -0.00308741 -0.0229837 -0.00367945 -0.0104185 -0.00613103 -0.00205452 0.0174775 0.0311577 -0.0135521 -0.0289377 0.00736815 0.0222751 -0.0232834 0.0152846 -0.0126685 0.00246134 0.0257732 -0.0112461 -0.00360642 0.0177695 -0.0067136
